{"learner":{"attributes":{"scikit_learn":"{\"_estimator_type\": \"regressor\"}"},"feature_names":["temperature_2m_mean","precipitation_sum","wind_speed_10m_max","wind_direction_10m_dominant"],"feature_types":["float","float","float","float"],"gradient_booster":{"model":{"gbtree_model_param":{"num_parallel_tree":"1","num_trees":"100"},"iteration_indptr":[0,1,2,3,4,5,6,7,8,9,10,11,12,13,14,15,16,17,18,19,20,21,22,23,24,25,26,27,28,29,30,31,32,33,34,35,36,37,38,39,40,41,42,43,44,45,46,47,48,49,50,51,52,53,54,55,56,57,58,59,60,61,62,63,64,65,66,67,68,69,70,71,72,73,74,75,76,77,78,79,80,81,82,83,84,85,86,87,88,89,90,91,92,93,94,95,96,97,98,99,100],"tree_info":[0,0,0,0,0,0,0,0,0,0,0,0,0,0,0,0,0,0,0,0,0,0,0,0,0,0,0,0,0,0,0,0,0,0,0,0,0,0,0,0,0,0,0,0,0,0,0,0,0,0,0,0,0,0,0,0,0,0,0,0,0,0,0,0,0,0,0,0,0,0,0,0,0,0,0,0,0,0,0,0,0,0,0,0,0,0,0,0,0,0,0,0,0,0,0,0,0,0,0,0],"trees":[{"base_weights":[1.4370951E-6,2.5985874E1,-1.1385514E1,3.839496E1,3.8420963E0,6.8732E-2,-2.8127163E1,6.1993572E1,2.620713E1,1.0887477E1,-1.6953957E1,-3.4208885E1,2.3349771E0,-5.324093E1,-2.3818872E1,6.625841E1,1.5695932E1,-3.2779488E1,3.049611E1,-7.3998685E0,2.6100605E1,-2.5593376E1,5.7143664E0,-3.8154224E1,6.692702E0,-1.9136475E1,3.930918E0,-1.4275606E1,-5.7275166E1,9.712039E-1,-2.8264952E1,1.835545E1,7.159424E1,3.4185024E1,-1.3607298E1,-6.4227486E0,-3.4980927E1,4.3483746E1,1.5064026E1,-1.9429922E1,3.9624577E0,3.31195E1,1.3846585E1,-7.4034357E0,-2.9555252E1,2.8714693E1,-1.15339985E1,-5.557774E1,-2.9257557E1,-5.6460667E0,1.542346E1,-9.20346E0,-4.896254E1,9.893719E0,-1.2186029E0,-3.9340282E1,2.972426E0,-5.968583E1,-2.4377804E1,2.8950802E1,-1.8531115E1,-3.1795467E1,-1.0148358E1,-6.0592284E0,9.279356E0,2.6584366E1,1.51484165E1,6.447811E0,1.4892418E1,4.1424174E0,-1.313528E1,-9.63455E0,3.853934E0,-7.9556446E0,-1.3371307E1,1.0073208E1,1.4993997E1,1.113234E1,2.7105024E0,-8.6419115E0,-1.8669401E0,6.5332837E0,-1.873627E0,1.1667008E1,4.8686137E0,2.1337667E0,1.5657811E1,-7.0449424E0,1.3778106E0,-1.3827281E1,-7.169694E0,1.452472E1,4.7978106E0,-5.2819276E0,1.4665451E1,-1.3845497E0,-1.7136797E1,-9.776529E0,-4.3546203E-1,5.1264863E0,5.654503E-1,1.8670046E0,-9.161411E0,-1.6895645E1,-7.335462E0,-1.0032719E0,4.144773E0,-6.229299E0,1.0708202E0,-7.845498E-1,-1.3507584E1,8.992417E0,-7.357583E0,-1.8338568E1,-1.1162818E1,2.1231756E0,-1.0694756E1,-1.1310462E1,1.1435794E1,7.3299456E-1,-9.10473E0,-1.0017717E1,1.0460328E0,-5.384902E-1,-8.899122E0],"categories":[],"categories_nodes":[],"categories_segments":[],"categories_sizes":[],"default_left":[0,0,0,0,0,0,0,0,0,0,0,0,0,0,0,0,0,0,0,0,0,0,0,0,0,0,0,0,0,0,0,0,0,0,0,0,0,0,0,0,0,0,0,0,0,0,0,0,0,0,0,0,0,0,0,0,0,0,0,0,0,0,0,0,0,0,0,0,0,0,0,0,0,0,0,0,0,0,0,0,0,0,0,0,0,0,0,0,0,0,0,0,0,0,0,0,0,0,0,0,0,0,0,0,0,0,0,0,0,0,0,0,0,0,0,0,0,0,0,0,0,0,0,0,0],"id":0,"left_children":[1,3,5,7,9,11,13,15,17,19,21,23,25,27,29,31,33,35,37,39,41,43,45,47,49,51,53,55,57,59,61,63,65,67,69,71,73,75,77,79,81,83,85,87,89,91,93,95,97,-1,99,101,103,105,107,109,111,113,115,117,119,121,123,-1,-1,-1,-1,-1,-1,-1,-1,-1,-1,-1,-1,-1,-1,-1,-1,-1,-1,-1,-1,-1,-1,-1,-1,-1,-1,-1,-1,-1,-1,-1,-1,-1,-1,-1,-1,-1,-1,-1,-1,-1,-1,-1,-1,-1,-1,-1,-1,-1,-1,-1,-1,-1,-1,-1,-1,-1,-1,-1,-1,-1,-1],"loss_changes":[1.2003144E6,3.394855E5,5.4096525E5,2.2616712E5,6.538426E4,1.3027405E5,1.22726125E5,5.2074625E4,1.3356769E5,9.283631E4,2.22763E4,1.703789E4,5.3977484E4,2.5433969E4,1.0804181E5,6.1564E4,1.3468129E4,1.8641445E3,9.7353375E4,2.0853777E4,1.5195156E4,5.690625E3,1.3026171E4,1.31E4,2.5177444E3,3.1842016E4,4.499571E4,7.4663154E3,1.052E4,8.238655E4,5.2828812E4,1.323033E4,7.4891E4,1.8757305E3,8.877698E3,2.3928545E3,1.4960625E3,1.53756875E4,2.956775E4,8.984359E3,1.4502552E4,1.0577766E4,1.7188E4,3.1941606E3,5.165004E3,2.7346123E3,7.831576E3,2.1770781E3,5.972883E3,0E0,1.4810718E2,2.7507375E4,3.4912734E3,3.530111E4,7.3725516E4,1.3437236E3,8.90265E3,2.26525E3,4.5068E3,3.9325516E4,2.2135068E4,3.9274812E4,2.2280438E4,0E0,0E0,0E0,0E0,0E0,0E0,0E0,0E0,0E0,0E0,0E0,0E0,0E0,0E0,0E0,0E0,0E0,0E0,0E0,0E0,0E0,0E0,0E0,0E0,0E0,0E0,0E0,0E0,0E0,0E0,0E0,0E0,0E0,0E0,0E0,0E0,0E0,0E0,0E0,0E0,0E0,0E0,0E0,0E0,0E0,0E0,0E0,0E0,0E0,0E0,0E0,0E0,0E0,0E0,0E0,0E0,0E0,0E0,0E0,0E0,0E0,0E0],"parents":[2147483647,0,0,1,1,2,2,3,3,4,4,5,5,6,6,7,7,8,8,9,9,10,10,11,11,12,12,13,13,14,14,15,15,16,16,17,17,18,18,19,19,20,20,21,21,22,22,23,23,24,24,25,25,26,26,27,27,28,28,29,29,30,30,31,31,32,32,33,33,34,34,35,35,36,36,37,37,38,38,39,39,40,40,41,41,42,42,43,43,44,44,45,45,46,46,47,47,48,48,50,50,51,51,52,52,53,53,54,54,55,55,56,56,57,57,58,58,59,59,60,60,61,61,62,62],"right_children":[2,4,6,8,10,12,14,16,18,20,22,24,26,28,30,32,34,36,38,40,42,44,46,48,50,52,54,56,58,60,62,64,66,68,70,72,74,76,78,80,82,84,86,88,90,92,94,96,98,-1,100,102,104,106,108,110,112,114,116,118,120,122,124,-1,-1,-1,-1,-1,-1,-1,-1,-1,-1,-1,-1,-1,-1,-1,-1,-1,-1,-1,-1,-1,-1,-1,-1,-1,-1,-1,-1,-1,-1,-1,-1,-1,-1,-1,-1,-1,-1,-1,-1,-1,-1,-1,-1,-1,-1,-1,-1,-1,-1,-1,-1,-1,-1,-1,-1,-1,-1,-1,-1,-1,-1],"split_conditions":[1.2337553E1,1.8824831E1,2.4328543E2,9.422101E0,1.978115E2,-2.5126665E0,-2.4022498E0,1.6000001E0,-4.0418334E0,1.08321175E2,2.6351915E1,1E-1,8.665152E0,1.4003028E1,1.5035119E1,-2.7897499E0,1.1223038E2,9.693296E0,1.8775305E2,5.021412E1,1.5934726E2,8.654987E0,2.2627293E2,-5.0626674E0,1.4154915E1,2.3936617E1,2.0183165E1,3.0099982E2,3.5477307E2,5.643583E0,1E-1,-4.8087497E0,3.285E0,8.217153E0,1.0701667E1,-6.0980835E0,2.3725023E2,1.9123331E0,-1.6126666E0,2.6000001E0,2.3212334E1,1.0990322E1,2.8556084E1,2.4328543E2,2.1489418E1,2.058269E2,1.1988594E1,1.2819235E1,2.334455E1,-5.6460667E0,-3.0793333E0,1.93415E1,6.283929E0,3.285E0,8.4681015E1,-6.629332E0,1.3493999E1,3.360171E1,-5.0626674E0,-1.76475E0,3.0885336E2,3.5567456E2,2.2320663E1,-6.0592284E0,9.279356E0,2.6584366E1,1.51484165E1,6.447811E0,1.4892418E1,4.1424174E0,-1.313528E1,-9.63455E0,3.853934E0,-7.9556446E0,-1.3371307E1,1.0073208E1,1.4993997E1,1.113234E1,2.7105024E0,-8.6419115E0,-1.8669401E0,6.5332837E0,-1.873627E0,1.1667008E1,4.8686137E0,2.1337667E0,1.5657811E1,-7.0449424E0,1.3778106E0,-1.3827281E1,-7.169694E0,1.452472E1,4.7978106E0,-5.2819276E0,1.4665451E1,-1.3845497E0,-1.7136797E1,-9.776529E0,-4.3546203E-1,5.1264863E0,5.654503E-1,1.8670046E0,-9.161411E0,-1.6895645E1,-7.335462E0,-1.0032719E0,4.144773E0,-6.229299E0,1.0708202E0,-7.845498E-1,-1.3507584E1,8.992417E0,-7.357583E0,-1.8338568E1,-1.1162818E1,2.1231756E0,-1.0694756E1,-1.1310462E1,1.1435794E1,7.3299456E-1,-9.10473E0,-1.0017717E1,1.0460328E0,-5.384902E-1,-8.899122E0],"split_indices":[2,0,3,2,3,0,0,1,0,3,0,1,3,2,2,0,3,2,3,3,3,2,3,0,2,2,0,3,3,0,1,0,0,2,0,0,3,0,0,1,0,2,0,3,0,3,2,2,2,0,0,0,3,0,3,0,2,2,0,0,3,3,0,0,0,0,0,0,0,0,0,0,0,0,0,0,0,0,0,0,0,0,0,0,0,0,0,0,0,0,0,0,0,0,0,0,0,0,0,0,0,0,0,0,0,0,0,0,0,0,0,0,0,0,0,0,0,0,0,0,0,0,0,0,0],"split_type":[0,0,0,0,0,0,0,0,0,0,0,0,0,0,0,0,0,0,0,0,0,0,0,0,0,0,0,0,0,0,0,0,0,0,0,0,0,0,0,0,0,0,0,0,0,0,0,0,0,0,0,0,0,0,0,0,0,0,0,0,0,0,0,0,0,0,0,0,0,0,0,0,0,0,0,0,0,0,0,0,0,0,0,0,0,0,0,0,0,0,0,0,0,0,0,0,0,0,0,0,0,0,0,0,0,0,0,0,0,0,0,0,0,0,0,0,0,0,0,0,0,0,0,0,0],"sum_hessian":[4.055E3,1.235E3,2.82E3,7.91E2,4.44E2,1.675E3,1.145E3,2.68E2,5.23E2,3.32E2,1.12E2,1.03E2,1.572E3,1.66E2,9.79E2,2.45E2,2.3E1,3.5E1,4.88E2,1.51E2,1.81E2,8.1E1,3.1E1,9.4E1,9E0,1.08E2,1.464E3,1.6E1,1.5E2,1.49E2,8.3E2,2.5E1,2.2E2,1.4E1,9E0,3E0,3.2E1,2.64E2,2.24E2,7.3E1,7.8E1,1.14E2,6.7E1,1.5E1,6.6E1,1.3E1,1.8E1,3E1,6.4E1,2E0,7E0,8.2E1,2.6E1,6.78E2,7.86E2,6E0,1E1,1.39E2,1.1E1,6.1E1,8.8E1,6.94E2,1.36E2,6E0,1.9E1,1.2E2,1E2,9E0,5E0,5E0,4E0,1E0,2E0,1.9E1,1.3E1,1.07E2,1.57E2,4.7E1,1.77E2,4.2E1,3.1E1,2.8E1,5E1,8.4E1,3E1,5.8E1,9E0,6E0,9E0,1.5E1,5.1E1,4E0,9E0,1.7E1,1E0,1E0,2.9E1,5.7E1,7E0,6E0,1E0,4.8E1,3.4E1,1.9E1,7E0,1.55E2,5.23E2,1.54E2,6.32E2,1E0,5E0,5E0,5E0,1.29E2,1E1,3E0,8E0,7E0,5.4E1,3.2E1,5.6E1,6.64E2,3E1,9.6E1,4E1],"tree_param":{"num_deleted":"0","num_feature":"4","num_nodes":"125","size_leaf_vector":"1"}},{"base_weights":[-9.860351E-3,1.6483248E1,-8.939446E0,2.5051662E1,2.0534637E0,1.6094394E0,-1.8438414E1,4.442447E1,1.7123032E1,6.6454315E0,-1.6683828E1,-2.496583E1,3.8707488E0,-3.704439E1,-1.55749035E1,5.453761E1,2.7529118E1,-1.4632559E1,2.0825666E1,-9.922297E0,1.4230458E1,-1.950667E1,2.5622608E1,-2.8584642E1,9.7381735E0,-3.1434353E1,4.7146306E0,-1.1020927E1,-3.8958332E1,-1.1742424E1,-2.5336798E1,3.0991457E1,6.7144714E1,1.045001E1,8.351008E1,-2.2558199E1,-1.2668093E0,2.774403E1,9.27328E0,-1.1630315E1,4.8922874E1,7.597549E0,2.1776218E1,-3.3414024E1,-1.267517E1,-1.0037308E0,1.0942168E1,-1.5208063E1,-2.5144356E1,-2.1876402E0,1.2440667E1,-3.5063793E1,9.439662E0,6.6746635E0,-7.6871E0,1.2356398E0,-2.7568956E1,-4.030331E1,-1.777876E1,3.9290693E0,-1.5250238E1,-1.1651144E1,-3.111992E1,1.9948547E1,4.7649064E0,3.116372E1,1.62615E1,-4.789697E0,6.192296E0,4.0050957E1,7.9673386E0,-7.0389557E0,2.1819296E0,8.921947E0,-3.616737E0,1.3793007E1,7.14541E0,-3.2509544E0,4.3533306E0,-5.6567326E0,-5.3769886E-1,3.6617377E0,1.7127993E1,5.2122135E0,-1.888061E0,6.085876E0,2.4469784E1,-4.324026E0,-1.3696751E1,-6.120709E0,-6.621939E-1,8.954201E-2,-5.412209E-1,4.5223145E0,-8.079085E0,4.31974E0,-4.8405877E-1,-1.4272853E1,-5.667511E0,4.121511E0,5.813767E-1,-9.345807E0,-1.4222126E0,-8.090761E0,3.944073E0,-4.1001186E0,-1.107455E1,-8.0339575E0,-1.2782786E1,-5.935423E-1,-9.974791E0,5.2368383E0,-3.102617E0,-5.170672E0,3.026634E0,-1.2057818E1,-2.3278153E0,-9.783084E0,-4.52183E0],"categories":[],"categories_nodes":[],"categories_segments":[],"categories_sizes":[],"default_left":[0,0,0,0,0,0,0,0,0,0,0,0,0,0,0,0,0,0,0,0,0,0,0,0,0,0,0,0,0,0,0,0,0,0,0,0,0,0,0,0,0,0,0,0,0,0,0,0,0,0,0,0,0,0,0,0,0,0,0,0,0,0,0,0,0,0,0,0,0,0,0,0,0,0,0,0,0,0,0,0,0,0,0,0,0,0,0,0,0,0,0,0,0,0,0,0,0,0,0,0,0,0,0,0,0,0,0,0,0,0,0,0,0,0,0,0,0,0,0],"id":1,"left_children":[1,3,5,7,9,11,13,15,17,19,21,23,25,27,29,31,33,35,37,39,41,43,45,47,49,51,53,55,57,59,61,63,65,67,69,71,73,75,77,79,81,83,85,87,89,91,-1,-1,93,-1,95,97,-1,99,101,103,105,107,109,111,113,115,117,-1,-1,-1,-1,-1,-1,-1,-1,-1,-1,-1,-1,-1,-1,-1,-1,-1,-1,-1,-1,-1,-1,-1,-1,-1,-1,-1,-1,-1,-1,-1,-1,-1,-1,-1,-1,-1,-1,-1,-1,-1,-1,-1,-1,-1,-1,-1,-1,-1,-1,-1,-1,-1,-1,-1,-1],"loss_changes":[5.975014E5,1.7613612E5,2.6376534E5,1.3655756E5,4.5884707E4,7.509508E4,7.3213625E4,4.2752688E4,7.50852E4,5.392653E4,1.3039365E4,1.258591E4,3.4440324E4,8.735219E3,4.467203E4,4.571178E4,9.37817E4,7.068876E3,4.5299156E4,1.4137651E4,1.4549359E4,8.98227E3,2.0591196E3,5.4947734E3,5.509619E2,7.267166E3,2.7397586E4,2.8735742E3,4.1545312E3,4.7611305E4,2.6388688E4,3.0055371E4,4.380375E4,2.1058055E4,6.1940562E4,1.3045195E3,9.056314E3,2.4387906E4,2.2803525E4,9.349287E3,5.031084E2,2.1566715E4,1.0549922E4,6.785203E3,5.455293E3,3.6650798E0,0E0,0E0,6.0803555E3,0E0,2.7095532E2,4.362342E3,0E0,3.249548E4,1.049969E4,3.3781611E3,2.750581E2,3.8485E3,2.8674846E3,3.08749E4,3.57405E4,1.1017981E4,5.1765625E3,0E0,0E0,0E0,0E0,0E0,0E0,0E0,0E0,0E0,0E0,0E0,0E0,0E0,0E0,0E0,0E0,0E0,0E0,0E0,0E0,0E0,0E0,0E0,0E0,0E0,0E0,0E0,0E0,0E0,0E0,0E0,0E0,0E0,0E0,0E0,0E0,0E0,0E0,0E0,0E0,0E0,0E0,0E0,0E0,0E0,0E0,0E0,0E0,0E0,0E0,0E0,0E0,0E0,0E0,0E0,0E0],"parents":[2147483647,0,0,1,1,2,2,3,3,4,4,5,5,6,6,7,7,8,8,9,9,10,10,11,11,12,12,13,13,14,14,15,15,16,16,17,17,18,18,19,19,20,20,21,21,22,22,23,23,24,24,25,25,26,26,27,27,28,28,29,29,30,30,31,31,32,32,33,33,34,34,35,35,36,36,37,37,38,38,39,39,40,40,41,41,42,42,43,43,44,44,45,45,48,48,50,50,51,51,53,53,54,54,55,55,56,56,57,57,58,58,59,59,60,60,61,61,62,62],"right_children":[2,4,6,8,10,12,14,16,18,20,22,24,26,28,30,32,34,36,38,40,42,44,46,48,50,52,54,56,58,60,62,64,66,68,70,72,74,76,78,80,82,84,86,88,90,92,-1,-1,94,-1,96,98,-1,100,102,104,106,108,110,112,114,116,118,-1,-1,-1,-1,-1,-1,-1,-1,-1,-1,-1,-1,-1,-1,-1,-1,-1,-1,-1,-1,-1,-1,-1,-1,-1,-1,-1,-1,-1,-1,-1,-1,-1,-1,-1,-1,-1,-1,-1,-1,-1,-1,-1,-1,-1,-1,-1,-1,-1,-1,-1,-1,-1,-1,-1,-1],"split_conditions":[1.3089354E1,1.8670416E1,2.1014827E2,9.3669195E0,2.130481E2,-1.6126666E0,-2.4022498E0,1.338066E2,-3.2314167E0,7.2454155E1,8E0,1E-1,2.436579E0,1.4003028E1,2.0720665E1,3.349756E1,3.0465903E2,-4.0418334E0,2.1951277E2,2.8556084E1,2.5687334E1,2.2920664E1,2.2058165E1,5.6296105E0,1.4154915E1,9.2E0,2.4130743E1,-4.0418334E0,3.5477307E2,1.5986595E1,2.3725023E2,7.342588E0,5.021412E1,-1.2355832E0,1.3769165E0,1.3004921E1,1.338066E2,-1.0962499E0,1.0495713E1,2.6000001E0,1.8510746E1,1.1119281E1,1.3044722E1,1.0316686E1,1.1043261E1,2.0328749E1,1.0942168E1,-1.5208063E1,7.0332823E0,-2.1876402E0,6.9E0,2.1370783E1,9.439662E0,1.93415E1,7.7710657E0,2.2192844E2,1.3493999E1,2.6501813E2,3.575926E2,5.4102516E0,7.0000005E-1,1.3779114E1,3.0652895E1,1.9948547E1,4.7649064E0,3.116372E1,1.62615E1,-4.789697E0,6.192296E0,4.0050957E1,7.9673386E0,-7.0389557E0,2.1819296E0,8.921947E0,-3.616737E0,1.3793007E1,7.14541E0,-3.2509544E0,4.3533306E0,-5.6567326E0,-5.3769886E-1,3.6617377E0,1.7127993E1,5.2122135E0,-1.888061E0,6.085876E0,2.4469784E1,-4.324026E0,-1.3696751E1,-6.120709E0,-6.621939E-1,8.954201E-2,-5.412209E-1,4.5223145E0,-8.079085E0,4.31974E0,-4.8405877E-1,-1.4272853E1,-5.667511E0,4.121511E0,5.813767E-1,-9.345807E0,-1.4222126E0,-8.090761E0,3.944073E0,-4.1001186E0,-1.107455E1,-8.0339575E0,-1.2782786E1,-5.935423E-1,-9.974791E0,5.2368383E0,-3.102617E0,-5.170672E0,3.026634E0,-1.2057818E1,-2.3278153E0,-9.783084E0,-4.52183E0],"split_indices":[2,0,3,2,3,0,0,3,0,3,1,1,3,2,0,3,3,0,3,0,0,0,0,3,2,1,2,0,3,2,3,2,3,0,0,2,3,0,2,1,3,2,2,2,2,0,0,0,3,0,1,2,0,0,3,3,2,3,3,0,1,2,2,0,0,0,0,0,0,0,0,0,0,0,0,0,0,0,0,0,0,0,0,0,0,0,0,0,0,0,0,0,0,0,0,0,0,0,0,0,0,0,0,0,0,0,0,0,0,0,0,0,0,0,0,0,0,0,0],"split_type":[0,0,0,0,0,0,0,0,0,0,0,0,0,0,0,0,0,0,0,0,0,0,0,0,0,0,0,0,0,0,0,0,0,0,0,0,0,0,0,0,0,0,0,0,0,0,0,0,0,0,0,0,0,0,0,0,0,0,0,0,0,0,0,0,0,0,0,0,0,0,0,0,0,0,0,0,0,0,0,0,0,0,0,0,0,0,0,0,0,0,0,0,0,0,0,0,0,0,0,0,0,0,0,0,0,0,0,0,0,0,0,0,0,0,0,0,0,0,0],"sum_hessian":[4.055E3,1.424E3,2.631E3,8.93E2,5.31E2,1.247E3,1.384E3,2.58E2,6.35E2,4.27E2,1.04E2,9.7E1,1.15E3,1.83E2,1.201E3,1.6E2,9.8E1,6.6E1,5.69E2,1.34E2,2.93E2,9.8E1,6E0,8.8E1,9E0,2.6E1,1.124E3,1.3E1,1.7E2,8.64E2,3.37E2,5.7E1,1.03E2,7.6E1,2.2E1,4.1E1,2.5E1,3.55E2,2.14E2,1.31E2,3E0,1.57E2,1.36E2,3.1E1,6.7E1,2E0,4E0,1E1,7.8E1,1E0,8E0,2.5E1,1E0,9.71E2,1.53E2,8E0,5E0,1.59E2,1.1E1,1.58E2,7.06E2,1.01E2,2.36E2,1.6E1,4.1E1,2.5E1,7.8E1,2.1E1,5.5E1,1.1E1,1.1E1,4E1,1E0,6E0,1.9E1,6.1E1,2.94E2,4.4E1,1.7E2,7.5E1,5.6E1,1E0,2E0,9.2E1,6.5E1,1.34E2,2E0,1.3E1,1.8E1,3.8E1,2.9E1,1E0,1E0,3E0,7.5E1,7E0,1E0,1.3E1,1.2E1,3.89E2,5.82E2,1.6E1,1.37E2,2E0,6E0,3E0,2E0,2.5E1,1.34E2,6E0,5E0,8.1E1,7.7E1,6.55E2,5.1E1,1.1E1,9E1,2.15E2,2.1E1],"tree_param":{"num_deleted":"0","num_feature":"4","num_nodes":"119","size_leaf_vector":"1"}},{"base_weights":[9.152412E-3,1.0364274E1,-7.309574E0,1.6195595E1,7.9086155E-1,-1.0144677E0,-1.568354E1,3.5652824E1,1.2209276E1,4.3274713E0,-1.2516916E1,-1.3365923E1,1.2949E0,-2.836967E1,-1.3480782E1,-3.9173627E0,3.934091E1,-1.483362E1,1.4199838E1,-8.608444E0,9.781161E0,-2.7162815E1,-1.0300838E1,-1.5938488E1,1.7383118E1,2.197601E0,-1.8518204E1,-3.0198002E1,-1.8020096E1,-3.7099512E0,-1.7191223E1,-9.263854E0,1.1442001E1,4.858744E1,2.364349E1,-1.7236391E1,9.66406E0,2.1760534E1,6.566564E0,-1.29001665E1,-7.1259537E0,6.77635E0,2.7974981E1,7.4573836E0,-3.1967733E1,7.078618E-1,-1.495159E1,-3.2246155E1,-1.2834463E1,4.5265987E1,1.9930903E0,-2.149465E1,2.953329E0,8.023713E0,-1.9987787E1,-3.382301E1,-2.3811296E1,3.7132263E0,-2.3639086E1,7.1641815E1,-6.604612E0,-1.9972116E1,-6.1071525E0,7.23155E-1,-1.2591301E1,1.6378864E1,2.2042513E0,-2.577578E0,1.0512776E1,-7.881199E0,-3.5215695E0,-9.600701E-1,7.07853E0,6.041621E0,1.8807837E1,2.4863048E0,-8.623477E0,-1.0605948E1,-1.695952E0,1.0129815E-1,5.152327E0,6.42721E0,1.6631327E1,-1.1082606E1,5.7045215E-1,-2.6667516E0,1.2521065E1,-6.46056E0,-1.7274365E0,-5.8358135E0,-1.179072E1,-2.5501883E0,-6.3374715E0,1.3015709E0,1.5775127E1,4.405368E0,-8.118296E0,-2.8846803E0,-1.0277283E1,2.1217566E0,-3.2384238E-1,-4.50709E0,-1.0212589E1,-1.0411678E1,-5.6945805E-2,-4.9494977E0,-1.1358946E1,4.1782045E0,-1.4627014E0,-9.1206255E0,-8.3752364E-1,-1.3485445E1,2.7550476E1,-2.631498E0,2.30532E1,-6.572584E0,-4.6297392E-1,-5.061489E0,8.3171386E-1],"categories":[],"categories_nodes":[],"categories_segments":[],"categories_sizes":[],"default_left":[0,0,0,0,0,0,0,0,0,0,0,0,0,0,0,0,0,0,0,0,0,0,0,0,0,0,0,0,0,0,0,0,0,0,0,0,0,0,0,0,0,0,0,0,0,0,0,0,0,0,0,0,0,0,0,0,0,0,0,0,0,0,0,0,0,0,0,0,0,0,0,0,0,0,0,0,0,0,0,0,0,0,0,0,0,0,0,0,0,0,0,0,0,0,0,0,0,0,0,0,0,0,0,0,0,0,0,0,0,0,0,0,0,0,0,0,0,0,0],"id":2,"left_children":[1,3,5,7,9,11,13,15,17,19,21,23,25,27,29,31,33,35,37,39,41,43,45,47,49,51,53,55,57,59,61,63,-1,65,67,69,71,73,75,-1,77,79,81,-1,83,85,87,89,91,93,95,97,99,-1,101,103,105,107,109,111,113,115,117,-1,-1,-1,-1,-1,-1,-1,-1,-1,-1,-1,-1,-1,-1,-1,-1,-1,-1,-1,-1,-1,-1,-1,-1,-1,-1,-1,-1,-1,-1,-1,-1,-1,-1,-1,-1,-1,-1,-1,-1,-1,-1,-1,-1,-1,-1,-1,-1,-1,-1,-1,-1,-1,-1,-1,-1],"loss_changes":[3.07465E5,9.377425E4,1.2528765E5,8.054019E4,3.00342E4,3.8752973E4,2.8120953E4,2.5985203E4,4.6935555E4,3.5640633E4,4.0693633E3,1.7205297E4,2.0519375E4,2.2941953E3,3.1513547E4,3.9510728E3,2.2364969E4,3.6983135E3,4.6546812E4,7.3414775E3,1.9217922E4,5.0438965E3,6.052034E3,9.608777E3,7.204789E3,1.968725E4,3.860545E3,2.1117578E3,3.1407607E3,5.3039555E4,1.9327719E4,5.828702E3,0E0,2.4626797E4,2.3083281E4,2.4234072E3,1.1507876E3,2.5689266E4,2.479143E4,0E0,5.8281484E3,2.0480895E4,7.80766E3,0E0,2.7658496E3,1.4546255E4,4.899674E3,2.0339453E3,5.8565664E3,1.5688467E3,4.822245E3,4.8253936E3,1.7666076E4,0E0,2.9071543E3,2.3087812E3,4.4106016E3,5.9427344E2,2.7349355E3,2.531754E4,4.280911E4,1.7952688E4,1.2281465E4,0E0,0E0,0E0,0E0,0E0,0E0,0E0,0E0,0E0,0E0,0E0,0E0,0E0,0E0,0E0,0E0,0E0,0E0,0E0,0E0,0E0,0E0,0E0,0E0,0E0,0E0,0E0,0E0,0E0,0E0,0E0,0E0,0E0,0E0,0E0,0E0,0E0,0E0,0E0,0E0,0E0,0E0,0E0,0E0,0E0,0E0,0E0,0E0,0E0,0E0,0E0,0E0,0E0,0E0,0E0,0E0],"parents":[2147483647,0,0,1,1,2,2,3,3,4,4,5,5,6,6,7,7,8,8,9,9,10,10,11,11,12,12,13,13,14,14,15,15,16,16,17,17,18,18,19,19,20,20,21,21,22,22,23,23,24,24,25,25,26,26,27,27,28,28,29,29,30,30,31,31,33,33,34,34,35,35,36,36,37,37,38,38,40,40,41,41,42,42,44,44,45,45,46,46,47,47,48,48,49,49,50,50,51,51,52,52,54,54,55,55,56,56,57,57,58,58,59,59,60,60,61,61,62,62],"right_children":[2,4,6,8,10,12,14,16,18,20,22,24,26,28,30,32,34,36,38,40,42,44,46,48,50,52,54,56,58,60,62,64,-1,66,68,70,72,74,76,-1,78,80,82,-1,84,86,88,90,92,94,96,98,100,-1,102,104,106,108,110,112,114,116,118,-1,-1,-1,-1,-1,-1,-1,-1,-1,-1,-1,-1,-1,-1,-1,-1,-1,-1,-1,-1,-1,-1,-1,-1,-1,-1,-1,-1,-1,-1,-1,-1,-1,-1,-1,-1,-1,-1,-1,-1,-1,-1,-1,-1,-1,-1,-1,-1,-1,-1,-1,-1,-1,-1,-1,-1],"split_conditions":[1.4241629E1,1.8978998E1,2.4328543E2,8.766573E0,2.130481E2,3.285E0,-2.4022498E0,-2.8918333E0,-4.0418334E0,7.2454155E1,2.0720665E1,4E-1,1.78E1,3.4839523E2,4.2641664E0,8.311245E0,1.338066E2,1.3891522E1,1.8174742E2,2.436579E0,2.804567E1,6.302571E0,2.3454002E1,-4.38975E0,1.1E0,4.03763E0,1.4002892E0,-3.6084998E0,3.5034222E2,1.484318E1,1E-1,8.217153E0,1.1442001E1,1.3000002E0,1.5934726E2,1.1590644E2,-5.3418336E0,1.764358E1,1.6609999E1,-1.29001665E1,1.98975E1,4E-1,1.35515E1,7.4573836E0,1.3202726E1,1.26462E1,2.6922499E1,1.792966E1,1.7779742E2,-4.2147503E0,6.45072E1,1.806233E1,2.1362333E1,8.023713E0,1.3547343E2,3.7554058E1,3.3413364E2,-4.8087497E0,2.4130743E1,2.6053775E2,3.592927E2,3.360171E1,2.1068459E1,7.23155E-1,-1.2591301E1,1.6378864E1,2.2042513E0,-2.577578E0,1.0512776E1,-7.881199E0,-3.5215695E0,-9.600701E-1,7.07853E0,6.041621E0,1.8807837E1,2.4863048E0,-8.623477E0,-1.0605948E1,-1.695952E0,1.0129815E-1,5.152327E0,6.42721E0,1.6631327E1,-1.1082606E1,5.7045215E-1,-2.6667516E0,1.2521065E1,-6.46056E0,-1.7274365E0,-5.8358135E0,-1.179072E1,-2.5501883E0,-6.3374715E0,1.3015709E0,1.5775127E1,4.405368E0,-8.118296E0,-2.8846803E0,-1.0277283E1,2.1217566E0,-3.2384238E-1,-4.50709E0,-1.0212589E1,-1.0411678E1,-5.6945805E-2,-4.9494977E0,-1.1358946E1,4.1782045E0,-1.4627014E0,-9.1206255E0,-8.3752364E-1,-1.3485445E1,2.7550476E1,-2.631498E0,2.30532E1,-6.572584E0,-4.6297392E-1,-5.061489E0,8.3171386E-1],"split_indices":[2,0,3,2,3,0,0,0,0,3,0,1,1,3,0,2,3,2,3,3,0,2,0,0,1,3,3,0,3,2,1,2,0,1,3,3,0,0,0,0,0,1,2,0,2,2,0,2,3,0,3,0,0,0,3,2,3,0,2,3,3,2,2,0,0,0,0,0,0,0,0,0,0,0,0,0,0,0,0,0,0,0,0,0,0,0,0,0,0,0,0,0,0,0,0,0,0,0,0,0,0,0,0,0,0,0,0,0,0,0,0,0,0,0,0,0,0,0,0],"split_type":[0,0,0,0,0,0,0,0,0,0,0,0,0,0,0,0,0,0,0,0,0,0,0,0,0,0,0,0,0,0,0,0,0,0,0,0,0,0,0,0,0,0,0,0,0,0,0,0,0,0,0,0,0,0,0,0,0,0,0,0,0,0,0,0,0,0,0,0,0,0,0,0,0,0,0,0,0,0,0,0,0,0,0,0,0,0,0,0,0,0,0,0,0,0,0,0,0,0,0,0,0,0,0,0,0,0,0,0,0,0,0,0,0,0,0,0,0,0,0],"sum_hessian":[4.055E3,1.679E3,2.376E3,1.043E3,6.36E2,1.357E3,1.019E3,1.76E2,8.67E2,5.03E2,1.33E2,2.13E2,1.144E3,1.49E2,8.7E2,1.5E1,1.61E2,5.9E1,8.08E2,1.49E2,3.54E2,1.6E1,1.17E2,1.97E2,1.6E1,1.095E3,4.9E1,1.25E2,2.4E1,2.4E2,6.3E2,1.4E1,1E0,1E2,6.1E1,5.4E1,5E0,4.05E2,4.03E2,5E0,1.44E2,3.05E2,4.9E1,1E0,1.5E1,3.5E1,8.2E1,3E1,1.67E2,5E0,1.1E1,3.3E1,1.062E3,1E0,4.8E1,7.7E1,4.8E1,5E0,1.9E1,8E0,2.32E2,5.03E2,1.27E2,1.1E1,3E0,8.7E1,1.3E1,1.6E1,4.5E1,1.9E1,3.5E1,3E0,2E0,3.91E2,1.4E1,3.85E2,1.8E1,6E0,1.38E2,1.89E2,1.16E2,4.1E1,8E0,1.3E1,2E0,2.9E1,6E0,4.7E1,3.5E1,1.2E1,1.8E1,1.11E2,5.6E1,1E0,4E0,8E0,3E0,1.8E1,1.5E1,5.25E2,5.37E2,3.7E1,1.1E1,7.5E1,2E0,3.3E1,1.5E1,2E0,3E0,1.4E1,5E0,1E0,7E0,2.27E2,5E0,4.55E2,4.8E1,5.7E1,7E1],"tree_param":{"num_deleted":"0","num_feature":"4","num_nodes":"119","size_leaf_vector":"1"}},{"base_weights":[6.218246E-3,9.714502E0,-4.247396E0,1.4050696E1,1.9207048E0,1.393266E0,-8.973966E0,4.9880394E1,1.2724382E1,-4.7591138E-1,1.5865272E1,-4.2721443E0,6.986583E0,-1.0573819E1,1.0301747E-1,1.7918936E1,8.056193E1,1.7854237E1,5.3464756E0,-1.2348209E1,1.4921255E0,3.4896717E1,8.397953E0,1.437072E0,-1.2253324E1,-6.6144958E0,8.886582E0,-9.107418E0,-1.9807114E1,2.2199003E1,-3.0540593E0,-1.6521317E1,2.7066153E1,9.738699E1,1.4152508E1,1.6788385E1,8.3213615E1,1.9918727E0,2.1585627E1,2.1849699E1,-1.4788277E1,5.3242965E0,-7.0976043E0,-1.2470474E1,4.520152E1,2.0224426E0,1.8911446E1,-1.0461953E1,6.8275714E0,-2.1002384E1,-4.5198565E0,-9.178902E0,2.6542997E1,1.1818459E1,1.1174647E0,-1.819903E1,-6.934187E0,-1.3315532E1,-2.3423374E1,5.7541164E1,5.693813E-1,-3.0406767E1,-8.670504E-1,1.2553274E1,1.8930942E0,2.5187654E0,3.4868977E1,1.7207108E-1,5.5462894E0,5.6996207E0,-2.2331285E0,2.9402693E1,9.245046E0,-9.678557E0,1.1706343E0,3.2165745E1,4.3338075E0,1.0452854E1,-2.5694609E0,-8.805385E0,-1.9930505E0,4.799712E0,6.888513E-2,-3.0040958E0,5.3013887E0,-7.3853602E0,-6.46164E-2,3.3668702E0,1.4048079E1,-3.772569E0,4.9481134E0,1.2136676E1,-2.1383274E0,-8.643475E0,-2.5433304E0,9.509678E-1,5.7332287E0,8.94891E0,-6.495865E0,-1.7309442E-1,-1.073411E1,-1.9057363E0,-1.4243604E1,1.789222E1,-7.9304934E0,1.4655443E1,3.261764E0,-2.589407E0,2.0281818E0,-2.3091207E0,-5.9921937E0,-2.3321705E0,4.7004943E0,-4.795333E0,9.6864355E-1,-4.140283E0,-8.020526E0,2.4104307E1,9.909189E0,-1.0361978E1,5.8291783E0,-1.35856695E1,-2.0799184E0,-3.9695895E0,1.4125496E0],"categories":[],"categories_nodes":[],"categories_segments":[],"categories_sizes":[],"default_left":[0,0,0,0,0,0,0,0,0,0,0,0,0,0,0,0,0,0,0,0,0,0,0,0,0,0,0,0,0,0,0,0,0,0,0,0,0,0,0,0,0,0,0,0,0,0,0,0,0,0,0,0,0,0,0,0,0,0,0,0,0,0,0,0,0,0,0,0,0,0,0,0,0,0,0,0,0,0,0,0,0,0,0,0,0,0,0,0,0,0,0,0,0,0,0,0,0,0,0,0,0,0,0,0,0,0,0,0,0,0,0,0,0,0,0,0,0,0,0,0,0,0,0,0,0],"id":3,"left_children":[1,3,5,7,9,11,13,15,17,19,21,23,25,27,29,31,33,35,37,39,41,43,45,47,49,51,53,55,57,59,61,-1,63,65,67,69,71,73,75,77,79,81,83,85,87,89,91,93,95,97,99,101,103,105,107,109,111,113,115,117,119,121,123,-1,-1,-1,-1,-1,-1,-1,-1,-1,-1,-1,-1,-1,-1,-1,-1,-1,-1,-1,-1,-1,-1,-1,-1,-1,-1,-1,-1,-1,-1,-1,-1,-1,-1,-1,-1,-1,-1,-1,-1,-1,-1,-1,-1,-1,-1,-1,-1,-1,-1,-1,-1,-1,-1,-1,-1,-1,-1,-1,-1,-1,-1],"loss_changes":[1.6753498E5,4.1744156E4,7.522314E4,3.709728E4,1.4812511E4,4.0812867E4,2.2292117E4,2.6013953E4,2.893364E4,8.873807E3,8.944341E3,2.9180027E4,1.6804426E4,1.7488938E4,1.6182062E4,1.1505391E4,1.4264531E4,3.0090844E4,1.717139E4,4.829161E3,1.0768833E4,9.349658E3,3.1791392E3,2.4060424E4,1.7970445E4,7.0459785E3,1.2947527E4,2.2161016E4,3.8667031E3,2.213593E4,1.2117222E4,0E0,4.0301934E3,1.7469531E4,2.2486151E2,2.402986E4,2.4062773E3,1.7334738E4,3.1466123E4,1.8791481E3,5.8542373E3,1.2287199E4,7.4719087E3,5.90167E2,3.0290234E2,6.756064E3,1.0386219E4,4.0156016E3,1.1530838E4,4.779172E3,1.7605004E4,7.8173164E3,1.2097306E4,1.3936246E4,8.695548E3,3.8912422E3,1.7431227E4,2.9658652E3,3.2319648E3,3.4950664E3,1.3253009E4,4.9249385E3,1.3092187E4,0E0,0E0,0E0,0E0,0E0,0E0,0E0,0E0,0E0,0E0,0E0,0E0,0E0,0E0,0E0,0E0,0E0,0E0,0E0,0E0,0E0,0E0,0E0,0E0,0E0,0E0,0E0,0E0,0E0,0E0,0E0,0E0,0E0,0E0,0E0,0E0,0E0,0E0,0E0,0E0,0E0,0E0,0E0,0E0,0E0,0E0,0E0,0E0,0E0,0E0,0E0,0E0,0E0,0E0,0E0,0E0,0E0,0E0,0E0,0E0,0E0,0E0],"parents":[2147483647,0,0,1,1,2,2,3,3,4,4,5,5,6,6,7,7,8,8,9,9,10,10,11,11,12,12,13,13,14,14,15,15,16,16,17,17,18,18,19,19,20,20,21,21,22,22,23,23,24,24,25,25,26,26,27,27,28,28,29,29,30,30,32,32,33,33,34,34,35,35,36,36,37,37,38,38,39,39,40,40,41,41,42,42,43,43,44,44,45,45,46,46,47,47,48,48,49,49,50,50,51,51,52,52,53,53,54,54,55,55,56,56,57,57,58,58,59,59,60,60,61,61,62,62],"right_children":[2,4,6,8,10,12,14,16,18,20,22,24,26,28,30,32,34,36,38,40,42,44,46,48,50,52,54,56,58,60,62,-1,64,66,68,70,72,74,76,78,80,82,84,86,88,90,92,94,96,98,100,102,104,106,108,110,112,114,116,118,120,122,124,-1,-1,-1,-1,-1,-1,-1,-1,-1,-1,-1,-1,-1,-1,-1,-1,-1,-1,-1,-1,-1,-1,-1,-1,-1,-1,-1,-1,-1,-1,-1,-1,-1,-1,-1,-1,-1,-1,-1,-1,-1,-1,-1,-1,-1,-1,-1,-1,-1,-1,-1,-1,-1,-1,-1,-1,-1,-1,-1,-1,-1,-1],"split_conditions":[1.2337553E1,1.8978998E1,2.0511275E2,6.302571E0,2.7549835E1,1.1590644E2,1E-1,5.771239E0,1.789709E2,3.8607662E1,1.3211954E2,1.8978998E1,8.2248335E0,2.415608E1,5.8185825E0,3.349756E1,7.951916E0,1.7284653E2,1.1885453E1,7.342588E0,1.978115E2,8.557102E0,2E-1,2.8108332E-1,4E-1,1.4000001E0,2.0721119E1,-2.0439165E0,2.31454E2,1.5986595E1,9.789416E0,-1.6521317E1,1.21675354E2,-1.76475E0,1.0249833E1,1.1885453E1,1.0185519E1,1.8775305E2,1.8775305E2,2.0622751E1,2.3212334E1,2.337066E1,1.191812E1,2.8189163E1,1.8510746E1,2.8556084E1,1.0829959E1,-6.0980835E0,1.5126918E1,1.93415E1,2.5570139E1,7.458166E0,2.9999998E0,1.0083167E1,1.7012343E2,2.4328543E2,3.5567456E2,2.2192844E2,1.662249E1,3.255438E2,2.1068459E1,3.3222754E2,1.7727943E1,1.2553274E1,1.8930942E0,2.5187654E0,3.4868977E1,1.7207108E-1,5.5462894E0,5.6996207E0,-2.2331285E0,2.9402693E1,9.245046E0,-9.678557E0,1.1706343E0,3.2165745E1,4.3338075E0,1.0452854E1,-2.5694609E0,-8.805385E0,-1.9930505E0,4.799712E0,6.888513E-2,-3.0040958E0,5.3013887E0,-7.3853602E0,-6.46164E-2,3.3668702E0,1.4048079E1,-3.772569E0,4.9481134E0,1.2136676E1,-2.1383274E0,-8.643475E0,-2.5433304E0,9.509678E-1,5.7332287E0,8.94891E0,-6.495865E0,-1.7309442E-1,-1.073411E1,-1.9057363E0,-1.4243604E1,1.789222E1,-7.9304934E0,1.4655443E1,3.261764E0,-2.589407E0,2.0281818E0,-2.3091207E0,-5.9921937E0,-2.3321705E0,4.7004943E0,-4.795333E0,9.6864355E-1,-4.140283E0,-8.020526E0,2.4104307E1,9.909189E0,-1.0361978E1,5.8291783E0,-1.35856695E1,-2.0799184E0,-3.9695895E0,1.4125496E0],"split_indices":[2,0,3,2,0,3,1,2,3,3,3,0,0,0,0,3,0,3,2,2,3,2,1,0,1,1,2,0,3,2,0,0,3,0,0,2,2,3,3,0,0,0,2,0,3,0,2,0,0,0,2,0,1,0,3,3,3,3,2,3,2,3,2,0,0,0,0,0,0,0,0,0,0,0,0,0,0,0,0,0,0,0,0,0,0,0,0,0,0,0,0,0,0,0,0,0,0,0,0,0,0,0,0,0,0,0,0,0,0,0,0,0,0,0,0,0,0,0,0,0,0,0,0,0,0],"split_type":[0,0,0,0,0,0,0,0,0,0,0,0,0,0,0,0,0,0,0,0,0,0,0,0,0,0,0,0,0,0,0,0,0,0,0,0,0,0,0,0,0,0,0,0,0,0,0,0,0,0,0,0,0,0,0,0,0,0,0,0,0,0,0,0,0,0,0,0,0,0,0,0,0,0,0,0,0,0,0,0,0,0,0,0,0,0,0,0,0,0,0,0,0,0,0,0,0,0,0,0,0,0,0,0,0,0,0,0,0,0,0,0,0,0,0,0,0,0,0,0,0,0,0,0,0],"sum_hessian":[4.055E3,1.235E3,2.82E3,7.93E2,4.42E2,1.286E3,1.534E3,2.7E1,7.66E2,3.78E2,6.4E1,6.39E2,6.47E2,1.304E3,2.3E2,1.4E1,1.3E1,4.51E2,3.15E2,5.3E1,3.25E2,1.7E1,4.7E1,3.73E2,2.66E2,7.9E1,5.68E2,1.127E3,1.77E2,2.8E1,2.02E2,1E0,1.3E1,1E1,3E0,4.45E2,6E0,2.62E2,5.3E1,3E0,5E1,2.25E2,1E2,3E0,1.4E1,3E1,1.7E1,1.16E2,2.57E2,1.24E2,1.42E2,7.4E1,5E0,4.12E2,1.56E2,2.16E2,9.11E2,6.5E1,1.12E2,1E1,1.8E1,1.4E1,1.88E2,7E0,6E0,2E0,8E0,1E0,2E0,4.08E2,3.7E1,4E0,2E0,1.3E1,2.49E2,3E0,5E1,2E0,1E0,1.7E1,3.3E1,7.2E1,1.53E2,9E1,1E1,1E0,2E0,1E0,1.3E1,1.5E1,1.5E1,9E0,8E0,1E1,1.06E2,1.99E2,5.8E1,1E0,1.23E2,1.27E2,1.5E1,7E1,4E0,3E0,2E0,9E0,4.03E2,5.7E1,9.9E1,3.2E1,1.84E2,8.79E2,3.2E1,5.6E1,9E0,3E1,8.2E1,4E0,6E0,6E0,1.2E1,8E0,6E0,5.8E1,1.3E2],"tree_param":{"num_deleted":"0","num_feature":"4","num_nodes":"125","size_leaf_vector":"1"}},{"base_weights":[3.4943577E-2,4.7756104E0,-4.6292405E0,1.3162181E1,2.666878E0,-1.0996903E0,-8.952607E0,2.4191454E1,6.199415E0,-1.0305316E1,3.6163943E0,-2.1937786E1,-5.488218E-1,-1.2883035E1,-6.1949425E0,1.91624E1,7.803704E1,-3.8781433E1,7.280094E0,-1.730695E1,-6.2155886E0,7.386619E0,-7.494784E-1,-2.5464808E1,8.487244E-2,-3.755538E-2,-2.0846601E1,-1.6287024E1,-5.4287333E0,-6.583483E0,3.685104E1,2.2419522E0,3.3450954E1,9.183368E1,-1.312839E1,-1.6405392E1,6.110191E0,1.0222291E1,-3.0162237E0,-1.2124557E1,-2.3605215E1,2.3919847E1,-7.896856E0,5.1369157E0,1.871492E1,2.8583646E0,-8.265162E0,-2.7880503E1,1.5437927E0,1.2383086E1,-1.234065E1,-1.3127526E1,7.644364E-1,-2.987468E0,-3.2938038E1,-1.785856E1,-4.152543E0,-1.1984129E1,7.0309095E0,-7.847032E0,7.1015825E0,1.0442706E2,-1.2902599E1,2.1840408E0,-1.505788E1,1.228696E0,1.30508585E1,1.688573E1,4.465742E1,4.265721E-1,4.861929E0,-3.067398E0,4.558015E0,-4.843101E0,-1.7285157E-2,-5.1218634E0,-9.149443E0,1.4664952E0,8.590276E0,-3.2869933E0,3.2836745E0,2.0461193E1,1.4258187E0,8.135977E0,-1.1476876E0,-1.6635795E0,2.9995437E0,-1.627021E0,-6.069911E0,-1.2371351E1,-5.4022207E0,8.481457E-1,-1.5343896E-1,-4.674682E0,1.6169406E0,1.3270228E-1,6.236172E0,-7.250045E0,4.6779118E0,-1.1132116E1,-3.3462687E0,-4.5695286E0,-8.311903E0,8.773975E0,-3.0551307E0,1.8276684E0,-5.342954E0,8.822058E0,-3.2929013E0,-2.759931E-1,-2.9572377E0,-2.416574E0,4.1953263E0,3.962109E1,7.3710895E0],"categories":[],"categories_nodes":[],"categories_segments":[],"categories_sizes":[],"default_left":[0,0,0,0,0,0,0,0,0,0,0,0,0,0,0,0,0,0,0,0,0,0,0,0,0,0,0,0,0,0,0,0,0,0,0,0,0,0,0,0,0,0,0,0,0,0,0,0,0,0,0,0,0,0,0,0,0,0,0,0,0,0,0,0,0,0,0,0,0,0,0,0,0,0,0,0,0,0,0,0,0,0,0,0,0,0,0,0,0,0,0,0,0,0,0,0,0,0,0,0,0,0,0,0,0,0,0,0,0,0,0,0,0,0,0],"id":4,"left_children":[1,3,5,7,9,11,13,15,17,19,21,23,25,27,29,31,33,35,37,39,41,43,45,47,49,51,53,55,57,59,61,63,65,67,-1,-1,-1,69,71,73,75,77,79,81,83,85,87,89,91,-1,-1,93,95,97,99,101,103,105,107,109,111,113,-1,-1,-1,-1,-1,-1,-1,-1,-1,-1,-1,-1,-1,-1,-1,-1,-1,-1,-1,-1,-1,-1,-1,-1,-1,-1,-1,-1,-1,-1,-1,-1,-1,-1,-1,-1,-1,-1,-1,-1,-1,-1,-1,-1,-1,-1,-1,-1,-1,-1,-1,-1,-1],"loss_changes":[8.970571E4,3.5547188E4,3.1195906E4,3.0874898E4,1.985582E4,1.2924851E4,9.881055E3,4.074825E4,1.23861875E4,3.042252E3,2.4696021E4,2.2547178E3,1.140417E4,9.50309E3,9.307625E3,3.4739707E4,2.5864055E4,6.757707E3,7.4225195E3,1.01940234E3,3.7861572E3,2.0419547E4,1.8895947E4,1.6741562E3,1.0187712E4,1.1274441E4,5.732048E3,4.864914E3,9.885605E3,9.3586875E3,3.1474273E4,1.806524E4,2.2837812E4,1.5946578E4,0E0,0E0,0E0,9.982871E3,7.374801E3,1.163031E3,2.4476562E2,2.1891577E2,4.0403901E3,1.598232E4,2.530104E4,2.8316793E4,7.5764863E3,2.2906152E3,9.358881E0,0E0,0E0,2.9022168E3,6.517452E3,5.0991094E3,1.0391738E3,5.501797E3,6.542408E3,8.427813E3,1.7245807E4,6.856617E3,4.91146E3,3.3774902E3,0E0,0E0,0E0,0E0,0E0,0E0,0E0,0E0,0E0,0E0,0E0,0E0,0E0,0E0,0E0,0E0,0E0,0E0,0E0,0E0,0E0,0E0,0E0,0E0,0E0,0E0,0E0,0E0,0E0,0E0,0E0,0E0,0E0,0E0,0E0,0E0,0E0,0E0,0E0,0E0,0E0,0E0,0E0,0E0,0E0,0E0,0E0,0E0,0E0,0E0,0E0,0E0,0E0],"parents":[2147483647,0,0,1,1,2,2,3,3,4,4,5,5,6,6,7,7,8,8,9,9,10,10,11,11,12,12,13,13,14,14,15,15,16,16,17,17,18,18,19,19,20,20,21,21,22,22,23,23,24,24,25,25,26,26,27,27,28,28,29,29,30,30,31,31,32,32,33,33,37,37,38,38,39,39,40,40,41,41,42,42,43,43,44,44,45,45,46,46,47,47,48,48,51,51,52,52,53,53,54,54,55,55,56,56,57,57,58,58,59,59,60,60,61,61],"right_children":[2,4,6,8,10,12,14,16,18,20,22,24,26,28,30,32,34,36,38,40,42,44,46,48,50,52,54,56,58,60,62,64,66,68,-1,-1,-1,70,72,74,76,78,80,82,84,86,88,90,92,-1,-1,94,96,98,100,102,104,106,108,110,112,114,-1,-1,-1,-1,-1,-1,-1,-1,-1,-1,-1,-1,-1,-1,-1,-1,-1,-1,-1,-1,-1,-1,-1,-1,-1,-1,-1,-1,-1,-1,-1,-1,-1,-1,-1,-1,-1,-1,-1,-1,-1,-1,-1,-1,-1,-1,-1,-1,-1,-1,-1,-1,-1],"split_conditions":[1.5716793E1,9.422101E0,2.4328543E2,3.7954168E0,-3.2314167E0,2.436579E0,2.1892027E1,2.8556467E2,4.5289993E0,-5.0626674E0,1.67475E1,4.2999997E0,3.01E1,3.382901E2,3.592927E2,-1.2355832E0,9.255571E0,9.114471E0,1.8897255E2,2.2280507E2,9.693296E0,1E-1,1.9431354E2,2.4651918E1,4.5648006E-1,-2.6587503E0,2.4264414E1,2E-1,1.4297498E1,6E-1,6.2333345E-2,2.3881506E2,6.87779E0,8.766573E0,-1.312839E1,-1.6405392E1,6.110191E0,7.2454155E1,3.4096188E2,1.3627795E1,-6.0980835E0,-4.516833E0,1.4707222E1,4.5648006E-1,3.1999998E0,1.1416835E2,3.240207E2,2.1370783E1,2.5687334E1,1.2383086E1,-1.234065E1,2.6072052E1,3.360171E1,2.17665E1,7.94E1,2.05484E1,2.5804816E2,3.4383316E2,2.1174833E1,2.420314E1,3.1431802E2,-9.5666665E-1,-1.2902599E1,2.1840408E0,-1.505788E1,1.228696E0,1.30508585E1,1.688573E1,4.465742E1,4.265721E-1,4.861929E0,-3.067398E0,4.558015E0,-4.843101E0,-1.7285157E-2,-5.1218634E0,-9.149443E0,1.4664952E0,8.590276E0,-3.2869933E0,3.2836745E0,2.0461193E1,1.4258187E0,8.135977E0,-1.1476876E0,-1.6635795E0,2.9995437E0,-1.627021E0,-6.069911E0,-1.2371351E1,-5.4022207E0,8.481457E-1,-1.5343896E-1,-4.674682E0,1.6169406E0,1.3270228E-1,6.236172E0,-7.250045E0,4.6779118E0,-1.1132116E1,-3.3462687E0,-4.5695286E0,-8.311903E0,8.773975E0,-3.0551307E0,1.8276684E0,-5.342954E0,8.822058E0,-3.2929013E0,-2.759931E-1,-2.9572377E0,-2.416574E0,4.1953263E0,3.962109E1,7.3710895E0],"split_indices":[2,2,3,0,0,3,2,3,0,0,0,1,1,3,3,0,2,2,3,3,2,1,3,0,3,0,0,1,0,1,0,3,2,2,0,0,0,3,3,2,0,0,2,3,1,3,3,2,0,0,0,2,2,0,1,2,3,3,0,2,3,0,0,0,0,0,0,0,0,0,0,0,0,0,0,0,0,0,0,0,0,0,0,0,0,0,0,0,0,0,0,0,0,0,0,0,0,0,0,0,0,0,0,0,0,0,0,0,0,0,0,0,0,0,0],"split_type":[0,0,0,0,0,0,0,0,0,0,0,0,0,0,0,0,0,0,0,0,0,0,0,0,0,0,0,0,0,0,0,0,0,0,0,0,0,0,0,0,0,0,0,0,0,0,0,0,0,0,0,0,0,0,0,0,0,0,0,0,0,0,0,0,0,0,0,0,0,0,0,0,0,0,0,0,0,0,0,0,0,0,0,0,0,0,0,0,0,0,0,0,0,0,0,0,0,0,0,0,0,0,0,0,0,0,0,0,0,0,0,0,0,0,0],"sum_hessian":[4.055E3,2.011E3,2.044E3,4.03E2,1.608E3,1.126E3,9.18E2,1.55E2,2.48E2,1.09E2,1.499E3,2.8E1,1.098E3,3.77E2,5.41E2,1.43E2,1.2E1,5E0,2.43E2,3.9E1,7E1,8.04E2,6.95E2,2.4E1,4E0,1.072E3,2.6E1,2.58E2,1.19E2,5.37E2,4E0,6.6E1,7.7E1,1.1E1,1E0,4E0,1E0,1.89E2,5.4E1,2.3E1,1.6E1,3E0,6.7E1,6.72E2,1.32E2,4.7E2,2.25E2,2.2E1,2E0,2E0,2E0,6.1E1,1.011E3,1.1E1,1.5E1,2.28E2,3E1,7.8E1,4.1E1,4.92E2,4.5E1,2E0,2E0,6.1E1,5E0,2E1,5.7E1,8E0,3E0,7.7E1,1.12E2,3.9E1,1.5E1,1.7E1,6E0,1E1,6E0,1E0,2E0,5.8E1,9E0,3E0,6.69E2,9.6E1,3.6E1,2.16E2,2.54E2,1.83E2,4.2E1,8E0,1.4E1,1E0,1E0,5.4E1,7E0,9.96E2,1.5E1,5E0,6E0,1.2E1,3E0,1.82E2,4.6E1,4E0,2.6E1,1.9E1,5.9E1,1.8E1,2.3E1,1.11E2,3.81E2,1.4E1,3.1E1,1E0,1E0],"tree_param":{"num_deleted":"0","num_feature":"4","num_nodes":"115","size_leaf_vector":"1"}},{"base_weights":[3.837817E-2,6.8530455E0,-1.6120933E0,1.028053E1,4.9623273E-2,1.002267E0,-4.0447206E0,-1.6646812E1,1.1377751E1,4.7692657E0,-5.5601945E0,-3.503239E0,4.0176034E0,-5.208053E0,2.654762E0,9.780324E-1,-2.2215704E1,1.4236409E1,4.5605484E-1,-1.2200297E1,7.9036617E0,-1.4381069E1,1.4236809E0,-1.1407427E1,-2.066281E0,4.905343E0,-1.9178417E1,-5.83983E0,6.2241445E0,5.815179E1,8.243072E-1,2.1850464E0,-1.1986703E0,-1.1581287E1,-1.12568655E1,1.348091E1,8.584947E1,1.0358077E1,-7.30813E0,-1.5716987E1,1.6483294E1,-1.9580732E1,9.731002E0,1.681116E0,-2.7286854E1,1.4484153E1,-5.8637743E0,-8.557611E0,-4.2041924E1,2.7253895E0,-6.72704E0,5.6344604E0,-1.2450174E1,-4.4701138E1,-5.6179557E0,-7.046208E0,1.3607202E0,3.5890587E1,-1.0536102E0,1.7717857E0,1.1408885E2,-1.7758406E1,1.564938E0,1.8965956E0,-5.591755E0,6.4681025E0,1.9720278E0,3.0487476E1,5.778471E0,4.633331E0,-4.910542E0,7.4819595E-1,-6.0666614E0,2.3294857E0,-6.509673E0,-2.2480283E0,9.665511E0,-8.940733E0,7.795687E0,1.562106E0,5.2733555E0,-8.151889E0,2.0552692E0,-8.837139E0,5.3476663E0,1.2003663E1,7.001028E-1,-3.1172721E0,7.588321E0,-3.587384E0,8.337169E0,-1.3617735E1,-2.7882376E0,-7.002258E0,1.5193367E0,-9.428656E0,-1.4558346E0,-3.4798884E-1,2.1406229E0,-5.035864E0,5.5973125E0,-1.4241221E1,-2.1353314E0,7.0950255E0,-4.369444E0,-1.9197648E0,-7.285685E0,1.0941733E0,-4.8287725E0,-2.0089447E0,1.2887268E1,-7.333127E0,1.0138514E0,1.2921852E0,-4.0629235E-1,5.464919E1,9.20275E0,1.2537709E1,1.0953619E-1],"categories":[],"categories_nodes":[],"categories_segments":[],"categories_sizes":[],"default_left":[0,0,0,0,0,0,0,0,0,0,0,0,0,0,0,0,0,0,0,0,0,0,0,0,0,0,0,0,0,0,0,0,0,0,0,0,0,0,0,0,0,0,0,0,0,0,0,0,0,0,0,0,0,0,0,0,0,0,0,0,0,0,0,0,0,0,0,0,0,0,0,0,0,0,0,0,0,0,0,0,0,0,0,0,0,0,0,0,0,0,0,0,0,0,0,0,0,0,0,0,0,0,0,0,0,0,0,0,0,0,0,0,0,0,0,0,0,0,0],"id":5,"left_children":[1,3,5,7,9,11,13,15,17,19,21,23,25,27,29,31,33,35,37,39,41,43,45,47,49,51,53,55,57,59,61,-1,-1,-1,63,65,67,69,71,73,75,77,79,81,83,85,87,89,91,93,95,97,99,101,103,105,107,109,111,113,115,-1,117,-1,-1,-1,-1,-1,-1,-1,-1,-1,-1,-1,-1,-1,-1,-1,-1,-1,-1,-1,-1,-1,-1,-1,-1,-1,-1,-1,-1,-1,-1,-1,-1,-1,-1,-1,-1,-1,-1,-1,-1,-1,-1,-1,-1,-1,-1,-1,-1,-1,-1,-1,-1,-1,-1,-1,-1],"loss_changes":[4.5630562E4,1.8444523E4,2.0775043E4,1.5730199E4,7.0692236E3,2.141142E4,1.32008125E4,2.0828955E3,1.5791539E4,7.80888E3,7.5361475E3,7.1546753E3,1.9532951E4,1.0451336E4,2.5449852E4,2.1726654E2,2.4390347E3,2.053821E4,8.225098E3,2.579107E3,6.3680127E3,1.1239811E4,6.652186E3,8.108581E3,1.1988727E4,1.1585484E4,1.1862364E4,1.1884148E4,1.6446602E4,2.5027715E4,1.0938902E4,0E0,0E0,0E0,1.5453354E3,2.2070078E4,2.2443594E3,6.6420195E3,7.6455493E3,3.1183018E3,1.3732527E3,4.500564E3,4.0263564E3,3.9153906E3,3.4622773E3,7.6610747E3,6.6104053E3,1.1455952E4,4.558955E2,1.62754375E4,1.244042E4,8.921398E3,5.303935E3,9.1120703E2,6.6290264E3,1.2905645E4,7.9219595E3,4.80209E3,6.511463E3,4.546441E1,1.7125371E4,0E0,1.1665008E4,0E0,0E0,0E0,0E0,0E0,0E0,0E0,0E0,0E0,0E0,0E0,0E0,0E0,0E0,0E0,0E0,0E0,0E0,0E0,0E0,0E0,0E0,0E0,0E0,0E0,0E0,0E0,0E0,0E0,0E0,0E0,0E0,0E0,0E0,0E0,0E0,0E0,0E0,0E0,0E0,0E0,0E0,0E0,0E0,0E0,0E0,0E0,0E0,0E0,0E0,0E0,0E0,0E0,0E0,0E0,0E0],"parents":[2147483647,0,0,1,1,2,2,3,3,4,4,5,5,6,6,7,7,8,8,9,9,10,10,11,11,12,12,13,13,14,14,15,15,16,16,17,17,18,18,19,19,20,20,21,21,22,22,23,23,24,24,25,25,26,26,27,27,28,28,29,29,30,30,34,34,35,35,36,36,37,37,38,38,39,39,40,40,41,41,42,42,43,43,44,44,45,45,46,46,47,47,48,48,49,49,50,50,51,51,52,52,53,53,54,54,55,55,56,56,57,57,58,58,59,59,60,60,62,62],"right_children":[2,4,6,8,10,12,14,16,18,20,22,24,26,28,30,32,34,36,38,40,42,44,46,48,50,52,54,56,58,60,62,-1,-1,-1,64,66,68,70,72,74,76,78,80,82,84,86,88,90,92,94,96,98,100,102,104,106,108,110,112,114,116,-1,118,-1,-1,-1,-1,-1,-1,-1,-1,-1,-1,-1,-1,-1,-1,-1,-1,-1,-1,-1,-1,-1,-1,-1,-1,-1,-1,-1,-1,-1,-1,-1,-1,-1,-1,-1,-1,-1,-1,-1,-1,-1,-1,-1,-1,-1,-1,-1,-1,-1,-1,-1,-1,-1,-1,-1,-1],"split_conditions":[1.0829959E1,2.02665E1,2.0511275E2,-4.8087497E0,9.693296E0,7.962932E1,1E-1,2.9453596E1,1E-1,5.021412E1,1.0185519E1,-7.793333E-1,2.6282463E1,3.360171E1,-1.6126666E0,-6.0980835E0,9.793058E0,1.98975E1,7.458166E0,5.5E0,6.87779E0,1.3754492E2,1.0495713E1,-1.2355832E0,1.6203999E1,1.4099999E1,1.806233E1,3.4504022E2,3.020673E2,-3.1585E0,-1.1501666E0,2.1850464E0,-1.1986703E0,-1.1581287E1,1.6843147E2,1.1741444E2,2.0183165E1,3.1999998E0,1.21675354E2,7.342588E0,2.0976913E1,2.6204E1,7E-1,2.1362333E1,3.073525E1,1.4068372E2,1.0805999E1,-1.6126666E0,2.777838E1,1.1384199E1,1.764358E1,8.937334E0,2.8887331E1,4.6E0,2.7112564E1,3.0652895E1,2.1174833E1,2.1511864E2,3.1431802E2,3E-1,-1.6855832E0,-1.7758406E1,3.3525035E-1,1.8965956E0,-5.591755E0,6.4681025E0,1.9720278E0,3.0487476E1,5.778471E0,4.633331E0,-4.910542E0,7.4819595E-1,-6.0666614E0,2.3294857E0,-6.509673E0,-2.2480283E0,9.665511E0,-8.940733E0,7.795687E0,1.562106E0,5.2733555E0,-8.151889E0,2.0552692E0,-8.837139E0,5.3476663E0,1.2003663E1,7.001028E-1,-3.1172721E0,7.588321E0,-3.587384E0,8.337169E0,-1.3617735E1,-2.7882376E0,-7.002258E0,1.5193367E0,-9.428656E0,-1.4558346E0,-3.4798884E-1,2.1406229E0,-5.035864E0,5.5973125E0,-1.4241221E1,-2.1353314E0,7.0950255E0,-4.369444E0,-1.9197648E0,-7.285685E0,1.0941733E0,-4.8287725E0,-2.0089447E0,1.2887268E1,-7.333127E0,1.0138514E0,1.2921852E0,-4.0629235E-1,5.464919E1,9.20275E0,1.2537709E1,1.0953619E-1],"split_indices":[2,0,3,0,2,3,1,3,1,3,2,0,2,2,0,0,2,0,0,1,2,3,2,0,0,1,0,3,3,0,0,0,0,0,3,3,0,1,3,2,0,0,1,0,0,3,2,0,2,2,0,0,0,1,2,2,0,3,3,1,0,0,0,0,0,0,0,0,0,0,0,0,0,0,0,0,0,0,0,0,0,0,0,0,0,0,0,0,0,0,0,0,0,0,0,0,0,0,0,0,0,0,0,0,0,0,0,0,0,0,0,0,0,0,0,0,0,0,0],"split_type":[0,0,0,0,0,0,0,0,0,0,0,0,0,0,0,0,0,0,0,0,0,0,0,0,0,0,0,0,0,0,0,0,0,0,0,0,0,0,0,0,0,0,0,0,0,0,0,0,0,0,0,0,0,0,0,0,0,0,0,0,0,0,0,0,0,0,0,0,0,0,0,0,0,0,0,0,0,0,0,0,0,0,0,0,0,0,0,0,0,0,0,0,0,0,0,0,0,0,0,0,0,0,0,0,0,0,0,0,0,0,0,0,0,0,0,0,0,0,0],"sum_hessian":[4.055E3,7.9E2,3.265E3,5.25E2,2.65E2,1.574E3,1.691E3,2E1,5.05E2,1.44E2,1.21E2,6.31E2,9.43E2,1.441E3,2.5E2,5E0,1.5E1,4E2,1.05E2,2.2E1,1.22E2,5.3E1,6.8E1,9.6E1,5.35E2,9.09E2,3.4E1,1.366E3,7.5E1,7E0,2.43E2,2E0,3E0,5E0,1E1,3.97E2,3E0,4.6E1,5.9E1,2E1,2E0,7E0,1.15E2,2.4E1,2.9E1,2.4E1,4.4E1,8.9E1,7E0,2.64E2,2.71E2,8.73E2,3.6E1,1.1E1,2.3E1,1.17E3,1.96E2,1.4E1,6.1E1,4E0,3E0,2E0,2.41E2,3E0,7E0,1.82E2,2.15E2,2E0,1E0,3.9E1,7E0,3.4E1,2.5E1,4E0,1.6E1,1E0,1E0,6E0,1E0,7.4E1,4.1E1,3E0,2.1E1,2.8E1,1E0,7E0,1.7E1,3.9E1,5E0,8.2E1,7E0,6E0,1E0,2.1E1,2.43E2,1.8E1,2.53E2,1.58E2,7.15E2,3.2E1,4E0,1E1,1E0,5E0,1.8E1,1.129E3,4.1E1,1.74E2,2.2E1,2E0,1.2E1,9E0,5.2E1,2E0,2E0,1E0,2E0,6E0,2.35E2],"tree_param":{"num_deleted":"0","num_feature":"4","num_nodes":"119","size_leaf_vector":"1"}},{"base_weights":[3.9995078E-2,2.8108857E0,-2.6862013E0,2.4570795E1,2.4468007E0,-9.6608925E0,-1.9332778E0,6.896553E1,1.215102E1,1.9766381E0,1.4701919E1,-7.9094324E0,-1.8231586E1,-2.681832E-1,-4.170673E0,9.486084E-1,9.5982574E1,1.7606684E1,-1.5375232E1,4.175394E0,-1.7643541E0,2.303704E1,7.2495174E0,-9.114547E0,1.4259741E1,-4.917908E0,-2.1008038E1,-6.6974753E-1,1.786625E1,3.975785E0,-5.54034E0,-3.2438967E0,3.6707704E0,2.7721857E1,3.9674732E1,1.2951273E0,3.5283367E1,-3.026293E1,6.626334E0,-3.892785E0,5.409079E0,-3.6086159E0,4.993369E0,-6.0753326E0,2.6050346E1,1.0946743E1,-6.246122E0,-1.6499561E1,-6.3224936E0,-5.1028705E0,2.0294601E1,-6.7062645E0,6.5274568E0,-2.4588549E1,-1.2462312E1,3.4325892E-1,-7.874272E0,4.7462097E1,-1.32184515E1,-1.9427042E-1,5.9253304E1,-4.283298E0,-1.3360935E1,1.1080607E1,1.3942292E0,-1.519764E1,2.9538565E0,-3.1740625E0,1.2278324E1,-1.6044732E0,-1.1035523E1,-3.574004E0,-2.811145E-1,1.7586676E0,-6.216224E0,-2.7604327E0,-3.7965956E-1,-4.2253485E0,2.4477503E0,1.4035081E0,-3.3658051E0,4.4878135E0,1.2076905E1,-2.3549464E0,6.20163E0,-5.5100985E0,4.3565655E0,-2.4599094E0,2.7977657E0,7.3758936E0,-1.4621063E0,-2.1387796E0,3.5171862E0,-8.048652E0,-3.0120988E0,-5.0954533E0,1.1255639E0,-7.504158E-1,1.0892813E0,-9.413804E0,-1.7498657E0,8.120513E0,4.0768955E1,9.827955E-1,-1.1089758E1,6.2881374E0,-2.1730344E0,1.0740047E1,3.35138E1,-1.7519995E0,3.5175943E0,-2.1817744E0,-6.839644E0],"categories":[],"categories_nodes":[],"categories_segments":[],"categories_sizes":[],"default_left":[0,0,0,0,0,0,0,0,0,0,0,0,0,0,0,0,0,0,0,0,0,0,0,0,0,0,0,0,0,0,0,0,0,0,0,0,0,0,0,0,0,0,0,0,0,0,0,0,0,0,0,0,0,0,0,0,0,0,0,0,0,0,0,0,0,0,0,0,0,0,0,0,0,0,0,0,0,0,0,0,0,0,0,0,0,0,0,0,0,0,0,0,0,0,0,0,0,0,0,0,0,0,0,0,0,0,0,0,0,0,0,0,0],"id":6,"left_children":[1,3,5,7,9,11,13,15,17,19,21,23,25,27,29,31,33,35,37,39,41,43,45,47,49,51,53,55,57,59,61,-1,-1,63,-1,65,67,69,-1,71,73,75,77,79,81,83,-1,85,87,-1,89,-1,91,93,95,97,99,101,103,105,107,109,111,-1,-1,-1,-1,-1,-1,-1,-1,-1,-1,-1,-1,-1,-1,-1,-1,-1,-1,-1,-1,-1,-1,-1,-1,-1,-1,-1,-1,-1,-1,-1,-1,-1,-1,-1,-1,-1,-1,-1,-1,-1,-1,-1,-1,-1,-1,-1,-1,-1,-1],"loss_changes":[3.0646543E4,1.5879855E4,1.0720452E4,1.7357295E4,1.13795E4,2.8430332E3,6.879832E3,1.2772262E4,4.325404E3,1.5701677E4,4.3675107E3,4.5916064E3,1.1165225E3,7.7310347E3,8.814481E3,5.305764E2,8.711711E3,6.5859907E3,3.4571309E3,1.1985271E4,8.829368E3,3.1408965E3,4.379149E3,3.1741592E3,2.0435553E3,1.5428704E3,5.197168E2,7.5782656E3,2.178687E4,2.6289688E4,6.5785723E3,0E0,0E0,4.6613428E2,0E0,6.2741904E3,3.2806084E3,4.5325366E2,0E0,3.7819038E3,1.247124E4,7.274435E3,9.295213E3,2.737569E2,4.2820977E3,6.743191E3,0E0,2.7577344E3,3.5133677E3,0E0,9.8394604E2,0E0,4.384187E2,3.1728906E2,7.970171E2,8.529009E3,5.958783E3,1.7963584E4,4.8215005E3,1.6108032E4,5.843365E3,1.4597192E4,5.17808E3,0E0,0E0,0E0,0E0,0E0,0E0,0E0,0E0,0E0,0E0,0E0,0E0,0E0,0E0,0E0,0E0,0E0,0E0,0E0,0E0,0E0,0E0,0E0,0E0,0E0,0E0,0E0,0E0,0E0,0E0,0E0,0E0,0E0,0E0,0E0,0E0,0E0,0E0,0E0,0E0,0E0,0E0,0E0,0E0,0E0,0E0,0E0,0E0,0E0,0E0],"parents":[2147483647,0,0,1,1,2,2,3,3,4,4,5,5,6,6,7,7,8,8,9,9,10,10,11,11,12,12,13,13,14,14,15,15,16,16,17,17,18,18,19,19,20,20,21,21,22,22,23,23,24,24,25,25,26,26,27,27,28,28,29,29,30,30,33,33,35,35,36,36,37,37,39,39,40,40,41,41,42,42,43,43,44,44,45,45,47,47,48,48,50,50,52,52,53,53,54,54,55,55,56,56,57,57,58,58,59,59,60,60,61,61,62,62],"right_children":[2,4,6,8,10,12,14,16,18,20,22,24,26,28,30,32,34,36,38,40,42,44,46,48,50,52,54,56,58,60,62,-1,-1,64,-1,66,68,70,-1,72,74,76,78,80,82,84,-1,86,88,-1,90,-1,92,94,96,98,100,102,104,106,108,110,112,-1,-1,-1,-1,-1,-1,-1,-1,-1,-1,-1,-1,-1,-1,-1,-1,-1,-1,-1,-1,-1,-1,-1,-1,-1,-1,-1,-1,-1,-1,-1,-1,-1,-1,-1,-1,-1,-1,-1,-1,-1,-1,-1,-1,-1,-1,-1,-1,-1,-1],"split_conditions":[1.5716793E1,6.302571E0,-2.4022498E0,-8.4808326E-1,2.8556084E1,-2.9814165E0,2.4328543E2,-1.76475E0,1.93415E1,1.8978998E1,2.963942E1,-3.1585E0,9.714297E1,2.3725023E2,6.2333345E-2,-1.8543334E0,5.771239E0,5.771239E0,2.4753746E1,-2.8918333E0,3.8E0,1.08321175E2,2.2627293E2,-6.0980835E0,2.3776329E1,2.5828869E1,-2.6587503E0,2.6282463E1,1.9708166E1,3.5477307E2,3.4839523E2,-3.2438967E0,3.6707704E0,-1.6855832E0,3.9674732E1,3.349756E1,-7.793333E-1,6.700268E1,6.626334E0,9.504504E1,8.8E0,1.1590644E2,2.1362333E1,2.2751022E1,1.3044722E1,1.5594106E2,-6.246122E0,3.5477307E2,3.029566E1,-5.1028705E0,3.3323947E2,-6.7062645E0,-2.8918333E0,2.450381E1,3.4013446E2,1.7012343E2,5.6296105E0,1.6431084E1,1.8448023E1,3.1001248E2,2.4946726E1,3.4430496E2,2.6282463E1,1.1080607E1,1.3942292E0,-1.519764E1,2.9538565E0,-3.1740625E0,1.2278324E1,-1.6044732E0,-1.1035523E1,-3.574004E0,-2.811145E-1,1.7586676E0,-6.216224E0,-2.7604327E0,-3.7965956E-1,-4.2253485E0,2.4477503E0,1.4035081E0,-3.3658051E0,4.4878135E0,1.2076905E1,-2.3549464E0,6.20163E0,-5.5100985E0,4.3565655E0,-2.4599094E0,2.7977657E0,7.3758936E0,-1.4621063E0,-2.1387796E0,3.5171862E0,-8.048652E0,-3.0120988E0,-5.0954533E0,1.1255639E0,-7.504158E-1,1.0892813E0,-9.413804E0,-1.7498657E0,8.120513E0,4.0768955E1,9.827955E-1,-1.1089758E1,6.2881374E0,-2.1730344E0,1.0740047E1,3.35138E1,-1.7519995E0,3.5175943E0,-2.1817744E0,-6.839644E0],"split_indices":[2,2,0,0,0,0,3,0,0,0,0,0,3,3,0,0,2,2,0,0,1,3,3,0,3,3,0,2,0,3,3,0,0,0,0,3,0,3,0,3,1,3,0,3,2,3,0,3,2,0,3,0,0,2,3,3,3,0,2,3,2,3,2,0,0,0,0,0,0,0,0,0,0,0,0,0,0,0,0,0,0,0,0,0,0,0,0,0,0,0,0,0,0,0,0,0,0,0,0,0,0,0,0,0,0,0,0,0,0,0,0,0,0],"split_type":[0,0,0,0,0,0,0,0,0,0,0,0,0,0,0,0,0,0,0,0,0,0,0,0,0,0,0,0,0,0,0,0,0,0,0,0,0,0,0,0,0,0,0,0,0,0,0,0,0,0,0,0,0,0,0,0,0,0,0,0,0,0,0,0,0,0,0,0,0,0,0,0,0,0,0,0,0,0,0,0,0,0,0,0,0,0,0,0,0,0,0,0,0,0,0,0,0,0,0,0,0,0,0,0,0,0,0,0,0,0,0,0,0],"sum_hessian":[4.055E3,2.011E3,2.044E3,3.2E1,1.979E3,1.98E2,1.846E3,6E0,2.6E1,1.907E3,7.2E1,1.66E2,3.2E1,1.059E3,7.87E2,2E0,4E0,2.2E1,4E0,1.201E3,7.06E2,3.3E1,3.9E1,1.58E2,8E0,6E0,2.6E1,1.037E3,2.2E1,1.13E2,6.74E2,1E0,1E0,2E0,2E0,1.2E1,1E1,3E0,1E0,1.59E2,1.042E3,5.55E2,1.51E2,3E0,3E1,3.5E1,4E0,4.2E1,1.16E2,1E0,7E0,2E0,4E0,1.7E1,9E0,9.1E2,1.27E2,1.1E1,1.1E1,1.06E2,7E0,5.82E2,9.2E1,1E0,1E0,1E0,1.1E1,1E0,9E0,1E0,2E0,4.2E1,1.17E2,1.025E3,1.7E1,1.63E2,3.92E2,2.1E1,1.3E2,1E0,2E0,1.8E1,1.2E1,1.2E1,2.3E1,4E1,2E0,1.04E2,1.2E1,6E0,1E0,1E0,3E0,1.4E1,3E0,7E0,2E0,4.88E2,4.22E2,9E0,1.18E2,1E1,1E0,7E0,4E0,2.6E1,8E1,6E0,1E0,5.31E2,5.1E1,5.7E1,3.5E1],"tree_param":{"num_deleted":"0","num_feature":"4","num_nodes":"113","size_leaf_vector":"1"}},{"base_weights":[5.045788E-2,2.295618E0,-2.0584285E0,-2.3968995E0,4.1443725E0,-1.1642286E0,-6.81227E0,5.8241516E-1,-8.374781E0,1.4001698E1,3.0294344E0,3.605169E1,-1.3119206E0,4.960242E0,-9.0745125E0,3.6315346E0,-1.744076E1,-1.150415E1,9.582902E0,2.8873688E1,5.186124E0,2.1102057E0,1.3862445E1,1.2726553E1,-3.253807E-1,-2.9418516E1,-1.1178856E0,-4.2283635E0,1.8517685E1,-1.1428493E1,-4.7028885E0,2.1152544E0,5.027306E1,-9.98566E0,-4.9244637E1,1.5668014E0,-1.5100757E1,-2.0669131E0,2.5288233E1,4.1000065E1,3.016837E0,4.2387295E-1,3.9782143E1,2.758652E0,-1.0838503E1,4.42924E0,2.2303432E1,-3.6980972E0,-4.7261944E1,-1.183469E1,-6.5628E-1,6.316174E0,-1.3366377E1,2.5417421E1,1.01475306E-1,-1.9928772E1,-8.531867E0,-8.551192E0,1.7417696E1,1.041198E0,-6.9021707E0,2.4626114E1,6.125006E-1,-7.3854585E0,5.4223332E0,-1.7591932E1,-8.436464E0,-1.2888606E0,5.6945167E0,-5.1161366E0,3.5248506E0,7.4703164E0,-2.887323E0,8.427891E0,-8.3457875E-1,5.642164E0,2.1244875E1,-1.2186332E0,8.642604E0,-3.750491E0,2.2464972E0,2.0373508E1,1.5066713E0,4.9746946E-1,2.725307E0,-9.168164E0,-1.7660228E0,4.2764697E0,-2.0611806E0,1.0189089E1,5.134138E0,4.361551E0,-8.034259E0,-1.687577E1,1.002269E0,-3.9696167E0,4.5685554E0,9.870191E-1,-5.500668E-1,5.7047734E0,-1.7022835E0,-6.2365627E0,1.4828129E0,5.032596E0,1.4144969E1,-3.5210233E0,3.574298E0,5.3100805E0,-7.209484E0,5.477035E0,-2.844586E0,-9.4730985E-1,-4.541699E0,1.3669754E1,1.9750512E0],"categories":[],"categories_nodes":[],"categories_segments":[],"categories_sizes":[],"default_left":[0,0,0,0,0,0,0,0,0,0,0,0,0,0,0,0,0,0,0,0,0,0,0,0,0,0,0,0,0,0,0,0,0,0,0,0,0,0,0,0,0,0,0,0,0,0,0,0,0,0,0,0,0,0,0,0,0,0,0,0,0,0,0,0,0,0,0,0,0,0,0,0,0,0,0,0,0,0,0,0,0,0,0,0,0,0,0,0,0,0,0,0,0,0,0,0,0,0,0,0,0,0,0,0,0,0,0,0,0,0,0,0,0,0,0],"id":7,"left_children":[1,3,5,7,9,11,13,15,17,19,21,23,25,27,29,31,33,35,37,39,41,43,45,-1,-1,47,49,51,53,55,57,59,61,63,65,67,69,71,73,75,77,79,81,83,85,87,89,91,93,95,97,99,101,103,105,107,109,111,113,-1,-1,-1,-1,-1,-1,-1,-1,-1,-1,-1,-1,-1,-1,-1,-1,-1,-1,-1,-1,-1,-1,-1,-1,-1,-1,-1,-1,-1,-1,-1,-1,-1,-1,-1,-1,-1,-1,-1,-1,-1,-1,-1,-1,-1,-1,-1,-1,-1,-1,-1,-1,-1,-1,-1,-1],"loss_changes":[1.9209023E4,1.7056924E4,8.88492E3,9.907232E3,1.545392E4,9.73212E3,8.860293E3,2.0506525E4,1.0506545E4,1.859829E4,1.2597508E4,1.701957E3,9.543745E3,6.8052944E3,2.8070723E3,2.2453852E4,1.2311719E4,7.4514062E3,5.1752656E3,1.6494457E4,1.4975836E4,9.853854E3,7.7841426E3,0E0,0E0,5.332506E3,8.62464E3,3.2641763E3,2.792895E3,4.261955E3,8.576489E3,1.0635709E4,1.5176734E4,1.892153E4,3.355039E2,3.6551802E3,6.7028574E3,3.7044333E3,1.02290576E3,2.248957E4,3.4034478E3,7.489857E3,1.0414516E4,7.746377E3,5.2889937E3,5.4273022E3,2.5653887E3,2.9150605E3,3.3725908E3,2.9243398E3,7.7833286E3,2.544311E3,2.5488267E3,2.2140723E3,1.1187373E3,7.3727344E3,3.6345176E3,2.9723535E3,4.274454E3,0E0,0E0,0E0,0E0,0E0,0E0,0E0,0E0,0E0,0E0,0E0,0E0,0E0,0E0,0E0,0E0,0E0,0E0,0E0,0E0,0E0,0E0,0E0,0E0,0E0,0E0,0E0,0E0,0E0,0E0,0E0,0E0,0E0,0E0,0E0,0E0,0E0,0E0,0E0,0E0,0E0,0E0,0E0,0E0,0E0,0E0,0E0,0E0,0E0,0E0,0E0,0E0,0E0,0E0,0E0,0E0],"parents":[2147483647,0,0,1,1,2,2,3,3,4,4,5,5,6,6,7,7,8,8,9,9,10,10,11,11,12,12,13,13,14,14,15,15,16,16,17,17,18,18,19,19,20,20,21,21,22,22,25,25,26,26,27,27,28,28,29,29,30,30,31,31,32,32,33,33,34,34,35,35,36,36,37,37,38,38,39,39,40,40,41,41,42,42,43,43,44,44,45,45,46,46,47,47,48,48,49,49,50,50,51,51,52,52,53,53,54,54,55,55,56,56,57,57,58,58],"right_children":[2,4,6,8,10,12,14,16,18,20,22,24,26,28,30,32,34,36,38,40,42,44,46,-1,-1,48,50,52,54,56,58,60,62,64,66,68,70,72,74,76,78,80,82,84,86,88,90,92,94,96,98,100,102,104,106,108,110,112,114,-1,-1,-1,-1,-1,-1,-1,-1,-1,-1,-1,-1,-1,-1,-1,-1,-1,-1,-1,-1,-1,-1,-1,-1,-1,-1,-1,-1,-1,-1,-1,-1,-1,-1,-1,-1,-1,-1,-1,-1,-1,-1,-1,-1,-1,-1,-1,-1,-1,-1,-1,-1,-1,-1,-1,-1],"split_conditions":[1.9513431E2,3.5147556E1,2.4431082E1,1.843108E1,5.242635E1,6.302571E0,1.224E1,2.7976158E1,1.6099998E1,1.0538843E1,2.8556084E1,4E-1,7.342588E0,1.0931203E1,2.1758419E1,1.764358E1,1.3824581E1,1.1542478E1,2.0581345E1,1.2989415E1,2.2728518E1,1.4099999E1,1.5594106E2,1.2726553E1,-3.253807E-1,6.5520988E0,-5.0626674E0,9.726665E0,2.7549835E1,2.078146E2,2E-1,7.3000007E0,1.8161278E1,2.9870842E0,1E-1,2.3000002E0,3.1749659E1,2.06E1,5E1,6.7458314E-1,6.3E0,4.1077908E1,4.254592E1,1.9000001E0,1.6099998E1,2.9378748E1,2.9097498E1,2.5528723E2,3.0099982E2,3.5477307E2,-2.5641662E-1,2.2627293E2,1.0538843E1,2.6833168E1,1.1609651E1,1.9715031E2,2.0873425E2,2.7112564E1,2.334455E1,1.041198E0,-6.9021707E0,2.4626114E1,6.125006E-1,-7.3854585E0,5.4223332E0,-1.7591932E1,-8.436464E0,-1.2888606E0,5.6945167E0,-5.1161366E0,3.5248506E0,7.4703164E0,-2.887323E0,8.427891E0,-8.3457875E-1,5.642164E0,2.1244875E1,-1.2186332E0,8.642604E0,-3.750491E0,2.2464972E0,2.0373508E1,1.5066713E0,4.9746946E-1,2.725307E0,-9.168164E0,-1.7660228E0,4.2764697E0,-2.0611806E0,1.0189089E1,5.134138E0,4.361551E0,-8.034259E0,-1.687577E1,1.002269E0,-3.9696167E0,4.5685554E0,9.870191E-1,-5.500668E-1,5.7047734E0,-1.7022835E0,-6.2365627E0,1.4828129E0,5.032596E0,1.4144969E1,-3.5210233E0,3.574298E0,5.3100805E0,-7.209484E0,5.477035E0,-2.844586E0,-9.4730985E-1,-4.541699E0,1.3669754E1,1.9750512E0],"split_indices":[3,3,0,0,3,2,2,3,1,2,0,1,2,2,2,0,0,2,3,0,2,1,3,0,0,2,0,2,0,3,1,1,2,0,1,1,3,1,1,0,1,3,3,1,1,0,0,3,3,3,0,3,2,0,2,3,3,2,2,0,0,0,0,0,0,0,0,0,0,0,0,0,0,0,0,0,0,0,0,0,0,0,0,0,0,0,0,0,0,0,0,0,0,0,0,0,0,0,0,0,0,0,0,0,0,0,0,0,0,0,0,0,0,0,0],"split_type":[0,0,0,0,0,0,0,0,0,0,0,0,0,0,0,0,0,0,0,0,0,0,0,0,0,0,0,0,0,0,0,0,0,0,0,0,0,0,0,0,0,0,0,0,0,0,0,0,0,0,0,0,0,0,0,0,0,0,0,0,0,0,0,0,0,0,0,0,0,0,0,0,0,0,0,0,0,0,0,0,0,0,0,0,0,0,0,0,0,0,0,0,0,0,0,0,0,0,0,0,0,0,0,0,0,0,0,0,0,0,0,0,0,0,0],"sum_hessian":[4.055E3,1.964E3,2.091E3,5.55E2,1.409E3,1.761E3,3.3E2,3.71E2,1.84E2,1.42E2,1.267E3,6E0,1.755E3,5.3E1,2.77E2,3.18E2,5.3E1,1.57E2,2.7E1,5.2E1,9E1,1.169E3,9.8E1,5E0,1E0,1.1E1,1.744E3,3.2E1,2.1E1,1.79E2,9.8E1,3.09E2,9E0,4.4E1,9E0,3.4E1,1.23E2,1.6E1,1.1E1,3.5E1,1.7E1,8E1,1E1,1.114E3,5.5E1,4.7E1,5.1E1,5E0,6E0,7.1E1,1.673E3,1.5E1,1.7E1,1.5E1,6E0,4.4E1,1.35E2,8.4E1,1.4E1,2.94E2,1.5E1,5E0,4E0,2.9E1,1.5E1,5E0,4E0,2.6E1,8E0,1.15E2,8E0,3E0,1.3E1,1E1,1E0,2.1E1,1.4E1,1.4E1,3E0,2.8E1,5.2E1,5E0,5E0,9.5E2,1.64E2,1E1,4.5E1,2.5E1,2.2E1,1.4E1,3.7E1,3E0,2E0,5E0,1E0,6.8E1,3E0,3.84E2,1.289E3,7E0,8E0,1.2E1,5E0,1.2E1,3E0,3E0,3E0,4E0,4E1,4E0,1.31E2,4.7E1,3.7E1,3E0,1.1E1],"tree_param":{"num_deleted":"0","num_feature":"4","num_nodes":"115","size_leaf_vector":"1"}},{"base_weights":[5.853277E-2,3.7520578E0,-6.9972163E-1,6.2495255E0,-1.6591488E0,-5.9242744E0,-3.146542E-1,3.6736596E0,1.6068668E1,-3.461355E1,-4.0776038E-1,-1.5187678E1,-5.0224237E0,-1.1478079E1,-1.8859537E-1,-3.0369781E1,4.401773E0,-8.817286E0,2.3388514E1,-3.8644722E1,-9.5929873E-1,7.0614905E0,-5.9757447E0,-6.768697E-1,-9.854372E0,1.32989025E1,-5.7035375E0,-2.2134487E1,-1.3392884E0,-9.0694153E-1,1.7218518E0,-6.0504317E0,-1.5952958E1,6.617838E0,-2.9675772E0,3.9707577E1,-2.112292E1,3.333153E1,4.564918E-1,-1.3069005E1,-1.3699483E0,-3.8581452E0,2.5481413E1,-3.4275913E1,-3.9550743E0,6.44772E0,-7.259963E0,-2.6895243E1,-4.9484124E0,-3.4895443E1,-3.416481E0,1.5425445E1,-1.240417E1,-1.1853511E0,7.4310737E0,1.7010252E1,3.6720893E-1,-2.7243E0,9.107758E-1,1.5075655E0,1.1829383E1,-6.596945E0,8.264985E-1,-8.219376E-1,1.5301311E1,-1.3814177E1,-2.6796846E0,1.4118894E1,4.4543183E-1,-4.473605E0,5.1203003E0,-2.9765267E0,5.368347E0,4.741534E1,5.0024166E0,-1.3949838E1,-3.1282513E0,2.9223561E0,-2.360348E0,4.321358E-1,-8.412326E0,-8.868234E0,-1.6353036E0,-2.6618925E-1,-2.3881898E0,-1.2445886E1,-4.391285E0,2.2925556E0,-4.915583E0,-7.5514426E0,7.446279E0,-7.5869145E0,-1.5897061E0,6.930702E-2,-9.489729E-1,7.94677E0,2.1367063E-1,3.4760532E0,2.5233751E1,-1.2982257E1,1.9437909E-1],"categories":[],"categories_nodes":[],"categories_segments":[],"categories_sizes":[],"default_left":[0,0,0,0,0,0,0,0,0,0,0,0,0,0,0,0,0,0,0,0,0,0,0,0,0,0,0,0,0,0,0,0,0,0,0,0,0,0,0,0,0,0,0,0,0,0,0,0,0,0,0,0,0,0,0,0,0,0,0,0,0,0,0,0,0,0,0,0,0,0,0,0,0,0,0,0,0,0,0,0,0,0,0,0,0,0,0,0,0,0,0,0,0,0,0,0,0,0,0,0,0],"id":8,"left_children":[1,3,5,7,9,11,13,15,17,19,21,23,25,27,29,31,33,35,37,39,-1,41,43,45,-1,-1,47,49,51,53,55,57,-1,59,61,63,65,67,69,-1,-1,71,73,75,77,-1,79,81,83,85,87,89,91,93,95,97,99,-1,-1,-1,-1,-1,-1,-1,-1,-1,-1,-1,-1,-1,-1,-1,-1,-1,-1,-1,-1,-1,-1,-1,-1,-1,-1,-1,-1,-1,-1,-1,-1,-1,-1,-1,-1,-1,-1,-1,-1,-1,-1,-1,-1],"loss_changes":[1.1361986E4,9.348761E3,6.769872E3,1.1904461E4,9.017174E3,1.8535435E3,4.4109663E3,9.453777E3,1.8058037E4,8.895713E2,8.858996E3,5.10305E3,7.3790864E3,3.7518638E3,4.2586294E3,4.1154204E3,6.045761E3,1.4572712E4,1.7313809E4,9.743926E2,0E0,1.8401945E4,6.8410435E3,1.9073424E3,0E0,0E0,3.2274116E3,3.9413945E3,3.715836E3,5.2435283E3,1.7556105E4,1.6525319E2,0E0,1.4643496E4,9.422208E3,2.5373364E3,5.3617197E3,2.3107121E4,6.3814487E3,0E0,0E0,7.827716E3,3.7059562E4,1.8472246E3,6.239501E3,0E0,1.8484357E3,2.3898682E2,2.4884624E3,7.279004E2,1.2725199E3,3.6762012E3,9.6463416E2,6.1162646E3,9.3286875E3,2.413608E4,9.583876E3,0E0,0E0,0E0,0E0,0E0,0E0,0E0,0E0,0E0,0E0,0E0,0E0,0E0,0E0,0E0,0E0,0E0,0E0,0E0,0E0,0E0,0E0,0E0,0E0,0E0,0E0,0E0,0E0,0E0,0E0,0E0,0E0,0E0,0E0,0E0,0E0,0E0,0E0,0E0,0E0,0E0,0E0,0E0,0E0],"parents":[2147483647,0,0,1,1,2,2,3,3,4,4,5,5,6,6,7,7,8,8,9,9,10,10,11,11,12,12,13,13,14,14,15,15,16,16,17,17,18,18,19,19,21,21,22,22,23,23,26,26,27,27,28,28,29,29,30,30,31,31,33,33,34,34,35,35,36,36,37,37,38,38,41,41,42,42,43,43,44,44,46,46,47,47,48,48,49,49,50,50,51,51,52,52,53,53,54,54,55,55,56,56],"right_children":[2,4,6,8,10,12,14,16,18,20,22,24,26,28,30,32,34,36,38,40,-1,42,44,46,-1,-1,48,50,52,54,56,58,-1,60,62,64,66,68,70,-1,-1,72,74,76,78,-1,80,82,84,86,88,90,92,94,96,98,100,-1,-1,-1,-1,-1,-1,-1,-1,-1,-1,-1,-1,-1,-1,-1,-1,-1,-1,-1,-1,-1,-1,-1,-1,-1,-1,-1,-1,-1,-1,-1,-1,-1,-1,-1,-1,-1,-1,-1,-1,-1,-1,-1,-1],"split_conditions":[1.0538843E1,1.8065854E2,-3.2314167E0,9.931042E0,1.8439857E2,1.14862E1,2.436579E0,2.436579E0,3.349756E1,2.7666502E1,9.255571E0,1.0990322E1,1.1542478E1,9.3289995E0,1E-1,8.217153E0,9.3669195E0,-4.254167E-1,2.3212334E1,1.3E0,-9.5929873E-1,3.0465903E2,9.3669195E0,4.9174866E1,-9.854372E0,1.32989025E1,1.2181625E1,1.9386593E1,1.722742E1,3.360171E1,5.4102516E0,1.0099999E1,-1.5952958E1,9.346143E0,6.7458314E-1,-5.3418336E0,4.6560826E0,1E-1,1E-1,-1.3069005E1,-1.3699483E0,9E0,-2.1293335E0,-1.4391641E-1,2.1114198E2,6.44772E0,-4.516833E0,-3.6084998E0,1.8448023E1,4.974833E0,2.289611E1,1.27279215E1,1.2351666E1,1.8844202E1,3.020673E2,5.206084E0,5.643583E0,-2.7243E0,9.107758E-1,1.5075655E0,1.1829383E1,-6.596945E0,8.264985E-1,-8.219376E-1,1.5301311E1,-1.3814177E1,-2.6796846E0,1.4118894E1,4.4543183E-1,-4.473605E0,5.1203003E0,-2.9765267E0,5.368347E0,4.741534E1,5.0024166E0,-1.3949838E1,-3.1282513E0,2.9223561E0,-2.360348E0,4.321358E-1,-8.412326E0,-8.868234E0,-1.6353036E0,-2.6618925E-1,-2.3881898E0,-1.2445886E1,-4.391285E0,2.2925556E0,-4.915583E0,-7.5514426E0,7.446279E0,-7.5869145E0,-1.5897061E0,6.930702E-2,-9.489729E-1,7.94677E0,2.1367063E-1,3.4760532E0,2.5233751E1,-1.2982257E1,1.9437909E-1],"split_indices":[2,3,0,2,3,2,3,3,3,0,2,2,2,0,1,2,2,0,0,1,0,3,2,3,0,0,2,2,2,2,0,1,0,2,0,0,0,1,1,0,0,2,0,0,3,0,0,0,2,0,2,2,0,2,3,0,0,0,0,0,0,0,0,0,0,0,0,0,0,0,0,0,0,0,0,0,0,0,0,0,0,0,0,0,0,0,0,0,0,0,0,0,0,0,0,0,0,0,0,0,0],"split_type":[0,0,0,0,0,0,0,0,0,0,0,0,0,0,0,0,0,0,0,0,0,0,0,0,0,0,0,0,0,0,0,0,0,0,0,0,0,0,0,0,0,0,0,0,0,0,0,0,0,0,0,0,0,0,0,0,0,0,0,0,0,0,0,0,0,0,0,0,0,0,0,0,0,0,0,0,0,0,0,0,0,0,0,0,0,0,0,0,0,0,0,0,0,0,0,0,0,0,0,0,0],"sum_hessian":[4.055E3,6.9E2,3.365E3,4.72E2,2.18E2,2.3E2,3.135E3,3.75E2,9.7E1,7E0,2.11E2,1.9E1,2.11E2,3.4E1,3.101E3,7E0,3.68E2,2.2E1,7.5E1,6E0,1E0,9E1,1.21E2,1.1E1,8E0,2E0,2.09E2,1.6E1,1.8E1,2.254E3,8.47E2,4E0,3E0,2.83E2,8.5E1,4E0,1.8E1,5.2E1,2.3E1,5E0,1E0,5.7E1,3.3E1,7E0,1.14E2,2E0,9E0,6E0,2.03E2,9E0,7E0,7E0,1.1E1,2.182E3,7.2E1,6.8E1,7.79E2,3E0,1E0,2.71E2,1.2E1,1.9E1,6.6E1,1E0,3E0,5E0,1.3E1,3.6E1,1.6E1,1.2E1,1.1E1,4.5E1,1.2E1,1E0,3.2E1,4E0,3E0,2.5E1,8.9E1,7E0,2E0,5E0,1E0,8.7E1,1.16E2,6E0,3E0,4E0,3E0,1E0,6E0,3E0,8E0,1.272E3,9.1E2,1.8E1,5.4E1,6.4E1,4E0,4E0,7.75E2],"tree_param":{"num_deleted":"0","num_feature":"4","num_nodes":"101","size_leaf_vector":"1"}},{"base_weights":[4.3218542E-2,5.4757977E0,-2.7277216E-1,3.1776981E0,3.147206E1,5.866637E-1,-1.5829636E0,1.0770851E1,-3.948405E0,9.366764E0,4.4687542E1,-2.550863E0,1.2038182E0,-1.6005857E1,-9.7886527E-1,5.758473E0,4.704842E1,-9.296748E0,1.7138227E1,1.7820938E1,-7.4718685E0,2.3114283E1,1.5189273E1,3.4383717E1,-3.6390827E0,3.9414284E1,1.0248255E0,-2.0448812E1,3.7845016E1,2.5047932E0,-2.051804E0,-2.2231833E1,8.419009E0,1.0279953E2,-7.4594474E0,1.0309555E1,-1.5394258E1,1.5943254E1,3.4221125E0,2.6948654E1,-5.541804E0,-2.5711184E0,2.0577616E1,-1.2729669E1,9.346571E1,8.8346595E-1,-1.3588509E1,-2.3458405E0,6.0685318E1,-3.3633057E1,1.1867505E0,3.3886197E0,-2.331966E1,5.4737236E1,-4.4585795E0,1.0531169E1,-1.8975505E0,-4.1419563E0,9.128984E-2,-1.6974784E0,-1.1217252E1,7.2659526E0,-6.6758946E-2,3.6622063E1,9.644211E-1,-6.2314925E0,5.164208E0,1.8351585E1,-4.6978557E-1,-7.744342E0,-9.9177934E-2,-3.0052288E0,2.4983783E0,-2.0226724E0,1.0510585E1,8.6479225E0,8.160065E-1,4.9759383E0,-1.1659015E1,3.337337E1,3.3525445E0,-4.541775E-1,5.6982822E0,2.3160508E0,-6.4352202E0,3.3796022E0,-6.4769077E0,2.0666641E1,2.950185E0,-1.3623394E1,-2.2672224E0,2.700004E0,2.2439136E-1,4.2743173E0,-4.751828E0,-7.683462E0,8.663828E-1,6.2206645E0,2.3511345E1,-1.263235E1,3.9421787E0,-1.4821237E1,-2.412783E-1,-9.2385167E-1,-4.0128446E0,-7.2631586E-1,7.947435E-1],"categories":[],"categories_nodes":[],"categories_segments":[],"categories_sizes":[],"default_left":[0,0,0,0,0,0,0,0,0,0,0,0,0,0,0,0,0,0,0,0,0,0,0,0,0,0,0,0,0,0,0,0,0,0,0,0,0,0,0,0,0,0,0,0,0,0,0,0,0,0,0,0,0,0,0,0,0,0,0,0,0,0,0,0,0,0,0,0,0,0,0,0,0,0,0,0,0,0,0,0,0,0,0,0,0,0,0,0,0,0,0,0,0,0,0,0,0,0,0,0,0,0,0,0,0,0,0],"id":9,"left_children":[1,3,5,7,9,11,13,15,17,19,21,23,25,27,29,31,33,35,37,39,-1,-1,41,43,45,47,49,51,53,55,57,59,61,63,65,67,69,-1,71,73,-1,-1,75,77,79,81,83,85,87,89,91,93,95,97,-1,99,101,103,105,-1,-1,-1,-1,-1,-1,-1,-1,-1,-1,-1,-1,-1,-1,-1,-1,-1,-1,-1,-1,-1,-1,-1,-1,-1,-1,-1,-1,-1,-1,-1,-1,-1,-1,-1,-1,-1,-1,-1,-1,-1,-1,-1,-1,-1,-1,-1,-1],"loss_changes":[6.9642036E3,1.3222457E4,4.3181104E3,1.11891045E4,4.839801E3,4.487631E3,1.32191455E4,1.7912762E4,1.2226633E4,2.761851E3,9.32993E3,1.5438634E4,1.3200677E4,1.5368564E4,5.45852E3,6.8149307E3,3.7233312E4,1.0439975E4,1.0683092E4,2.8167585E3,0E0,0E0,1.0725349E3,3.1808867E4,1.6705803E4,8.1368887E3,1.0859812E4,3.9797383E3,5.2651875E3,1.2175178E4,4.999381E3,1.798344E3,1.1201957E4,1.1123965E4,2.65677E3,1.2780143E4,1.0351263E4,0E0,1.2042667E3,1.8708901E3,0E0,0E0,8.054131E2,6.00758E3,6.0719883E3,1.1143938E4,1.95995E4,1.2909414E3,1.825502E3,2.4209395E3,6.575601E3,1.6872712E3,3.1372637E3,1.5893027E3,0E0,1.7310947E4,1.1542538E4,5.501951E3,3.5536804E3,0E0,0E0,0E0,0E0,0E0,0E0,0E0,0E0,0E0,0E0,0E0,0E0,0E0,0E0,0E0,0E0,0E0,0E0,0E0,0E0,0E0,0E0,0E0,0E0,0E0,0E0,0E0,0E0,0E0,0E0,0E0,0E0,0E0,0E0,0E0,0E0,0E0,0E0,0E0,0E0,0E0,0E0,0E0,0E0,0E0,0E0,0E0,0E0],"parents":[2147483647,0,0,1,1,2,2,3,3,4,4,5,5,6,6,7,7,8,8,9,9,10,10,11,11,12,12,13,13,14,14,15,15,16,16,17,17,18,18,19,19,22,22,23,23,24,24,25,25,26,26,27,27,28,28,29,29,30,30,31,31,32,32,33,33,34,34,35,35,36,36,38,38,39,39,42,42,43,43,44,44,45,45,46,46,47,47,48,48,49,49,50,50,51,51,52,52,53,53,55,55,56,56,57,57,58,58],"right_children":[2,4,6,8,10,12,14,16,18,20,22,24,26,28,30,32,34,36,38,40,-1,-1,42,44,46,48,50,52,54,56,58,60,62,64,66,68,70,-1,72,74,-1,-1,76,78,80,82,84,86,88,90,92,94,96,98,-1,100,102,104,106,-1,-1,-1,-1,-1,-1,-1,-1,-1,-1,-1,-1,-1,-1,-1,-1,-1,-1,-1,-1,-1,-1,-1,-1,-1,-1,-1,-1,-1,-1,-1,-1,-1,-1,-1,-1,-1,-1,-1,-1,-1,-1,-1,-1,-1,-1,-1,-1],"split_conditions":[8.39657E0,8.311245E0,2.2791846E2,1.0048068E2,5.206084E0,1.0644168E0,2.3458281E2,8.2084564E1,3.0099982E2,3.1164997E0,1.7278751E1,8.905908E0,1.1977502E0,1E0,1.3493999E1,-2.8918333E0,6.218584E0,6.5520988E0,1.3769165E0,2.1436098E2,-7.4718685E0,2.3114283E1,2.0858166E1,-1.0962499E0,-1.0962499E0,1.7276735E1,8.557102E0,-3.2314167E0,2.6095665E1,7.9358315E-1,2.1892027E1,8.217153E0,1.0644168E0,8.217153E0,9.714297E1,-8.4808326E-1,1.9708166E1,1.5943254E1,6.5520988E0,1.212706E1,-5.541804E0,-2.5711184E0,2.7E0,-1.8543334E0,1E-1,-1.5066668E0,2.1632072E1,1.6117952E1,3.1999998E0,2.58415E1,3.7954168E0,2.3248988E2,2.8297752E1,2.8E0,-4.4585795E0,9E0,1.0644168E0,2.0858265E1,1.1301915E1,-1.6974784E0,-1.1217252E1,7.2659526E0,-6.6758946E-2,3.6622063E1,9.644211E-1,-6.2314925E0,5.164208E0,1.8351585E1,-4.6978557E-1,-7.744342E0,-9.9177934E-2,-3.0052288E0,2.4983783E0,-2.0226724E0,1.0510585E1,8.6479225E0,8.160065E-1,4.9759383E0,-1.1659015E1,3.337337E1,3.3525445E0,-4.541775E-1,5.6982822E0,2.3160508E0,-6.4352202E0,3.3796022E0,-6.4769077E0,2.0666641E1,2.950185E0,-1.3623394E1,-2.2672224E0,2.700004E0,2.2439136E-1,4.2743173E0,-4.751828E0,-7.683462E0,8.663828E-1,6.2206645E0,2.3511345E1,-1.263235E1,3.9421787E0,-1.4821237E1,-2.412783E-1,-9.2385167E-1,-4.0128446E0,-7.2631586E-1,7.947435E-1],"split_indices":[2,2,3,3,0,0,3,3,3,0,0,2,0,1,2,0,0,2,0,3,0,0,0,0,0,3,2,0,0,0,2,2,0,2,3,0,0,0,2,3,0,0,1,0,1,0,3,3,1,0,0,3,0,1,0,2,0,2,0,0,0,0,0,0,0,0,0,0,0,0,0,0,0,0,0,0,0,0,0,0,0,0,0,0,0,0,0,0,0,0,0,0,0,0,0,0,0,0,0,0,0,0,0,0,0,0,0],"split_type":[0,0,0,0,0,0,0,0,0,0,0,0,0,0,0,0,0,0,0,0,0,0,0,0,0,0,0,0,0,0,0,0,0,0,0,0,0,0,0,0,0,0,0,0,0,0,0,0,0,0,0,0,0,0,0,0,0,0,0,0,0,0,0,0,0,0,0,0,0,0,0,0,0,0,0,0,0,0,0,0,0,0,0,0,0,0,0,0,0,0,0,0,0,0,0,0,0,0,0,0,0,0,0,0,0,0,0],"sum_hessian":[4.055E3,2.22E2,3.833E3,2.05E2,1.7E1,2.315E3,1.518E3,9.9E1,1.06E2,7E0,1E1,3.8E2,1.935E3,6E1,1.458E3,8.8E1,1.1E1,8.5E1,2.1E1,6E0,1E0,4E0,6E0,1E1,3.7E2,8E0,1.927E3,5.6E1,4E0,3.43E2,1.115E3,7E0,8.1E1,5E0,6E0,2E1,6.5E1,5E0,1.6E1,5E0,1E0,1E0,5E0,6E0,4E0,2.55E2,1.15E2,3E0,5E0,8E0,1.919E3,6E0,5E1,3E0,1E0,1.21E2,2.22E2,5.64E2,5.51E2,4E0,3E0,2.8E1,5.3E1,4E0,1E0,4E0,2E0,3E0,1.7E1,3.8E1,2.7E1,4E0,1.2E1,1E0,4E0,3E0,2E0,3E0,3E0,3E0,1E0,2.26E2,2.9E1,3.1E1,8.4E1,2E0,1E0,4E0,1E0,5E0,3E0,1.01E2,1.818E3,4E0,2E0,4.6E1,4E0,2E0,1E0,5E0,1.16E2,4E0,2.18E2,5.07E2,5.7E1,2.78E2,2.73E2],"tree_param":{"num_deleted":"0","num_feature":"4","num_nodes":"107","size_leaf_vector":"1"}},{"base_weights":[5.7334267E-2,-9.986848E0,1.8011561E-1,-4.0510936E0,-2.0921734E1,4.536795E0,-1.0721134E-1,-8.3816395E0,1.3231168E1,-3.3748253E1,-8.568347E0,1.152427E1,1.4409287E0,-1.2794747E1,4.296585E-2,-2.6003678E0,-3.329916E1,9.254295E0,1.5045166E-2,-1.6154722E0,-4.4189934E1,3.448436E0,-5.146282E0,7.413649E0,5.0984158E1,-1.43225765E1,3.0281131E0,7.7692E0,-2.1668957E1,9.948985E0,-1.443104E-1,1.4743053E1,-1.2833063E1,-1.705893E0,-1.1634238E1,-1.5560567E1,1.5585643E1,-3.6225617E0,2.8955991E0,-1.6631166E1,-4.3390713E0,1.1339405E1,-4.217316E0,3.0034061E1,3.1430125E0,5.5563015E1,3.5266504E0,-2.1511412E1,1.262178E1,1.6778744E1,1.6433891E0,3.5413303E1,-2.4933949E1,-1.70043E1,-1.4382693E1,3.1507391E1,-1.5151608E0,-2.9789953E1,-4.651099E-2,9.732985E0,-1.7717346E0,-4.7293396E0,-2.4917737E-1,-5.693825E-1,-6.4328732E0,7.841721E-1,6.2293673E0,-6.384865E-1,4.9614196E0,-5.7733355E0,1.2936935E1,-7.298447E-2,1.2132272E1,1.9567673E1,7.24758E0,-1.2432669E1,-2.414574E0,-3.9172945E0,1.344901E1,-7.022047E-1,2.346345E0,1.9928764E1,1.0553746E0,-1.0838544E1,6.334987E0,-1.2377711E1,-8.739064E-1,1.505459E0,3.3041584E1,-5.376065E0,5.158746E0,2.6334852E1,-1.4537594E1,5.7401156E0,-3.9353725E-2],"categories":[],"categories_nodes":[],"categories_segments":[],"categories_sizes":[],"default_left":[0,0,0,0,0,0,0,0,0,0,0,0,0,0,0,0,0,0,0,0,0,0,0,0,0,0,0,0,0,0,0,0,0,0,0,0,0,0,0,0,0,0,0,0,0,0,0,0,0,0,0,0,0,0,0,0,0,0,0,0,0,0,0,0,0,0,0,0,0,0,0,0,0,0,0,0,0,0,0,0,0,0,0,0,0,0,0,0,0,0,0,0,0,0,0],"id":10,"left_children":[1,3,5,7,9,11,13,15,17,19,21,23,25,27,29,31,33,-1,35,37,39,41,-1,43,45,47,49,51,53,55,57,59,61,-1,-1,63,65,-1,-1,-1,-1,67,-1,69,71,73,-1,75,77,-1,79,81,83,-1,85,87,89,91,93,-1,-1,-1,-1,-1,-1,-1,-1,-1,-1,-1,-1,-1,-1,-1,-1,-1,-1,-1,-1,-1,-1,-1,-1,-1,-1,-1,-1,-1,-1,-1,-1,-1,-1,-1,-1],"loss_changes":[5.003813E3,3.0956772E3,5.0176665E3,2.5806724E3,2.404499E3,5.3482017E3,7.1666787E3,3.802893E3,1.6292871E3,2.6127744E3,1.0909076E3,1.1949574E4,4.37176E3,8.197856E3,6.898928E3,4.2710073E3,5.3629834E2,0E0,1.4551294E3,4.7011398E2,1.2042266E3,8.501088E2,0E0,6.667852E3,6.0418555E2,3.3706885E3,1.1482112E4,1.3539684E4,7.093091E3,1.7101002E4,1.0581155E4,3.481004E3,5.146675E2,0E0,0E0,2.0040735E2,1.472619E2,0E0,0E0,0E0,0E0,3.1525366E2,0E0,7.9249814E3,7.5879355E3,2.4492383E2,0E0,3.1546772E3,3.893733E3,0E0,3.8332656E3,7.680423E3,4.371513E3,0E0,8.202908E3,4.943636E4,1.4428064E4,3.0593E4,5.9120767E3,0E0,0E0,0E0,0E0,0E0,0E0,0E0,0E0,0E0,0E0,0E0,0E0,0E0,0E0,0E0,0E0,0E0,0E0,0E0,0E0,0E0,0E0,0E0,0E0,0E0,0E0,0E0,0E0,0E0,0E0,0E0,0E0,0E0,0E0,0E0,0E0],"parents":[2147483647,0,0,1,1,2,2,3,3,4,4,5,5,6,6,7,7,8,8,9,9,10,10,11,11,12,12,13,13,14,14,15,15,16,16,18,18,19,19,20,20,21,21,23,23,24,24,25,25,26,26,27,27,28,28,29,29,30,30,31,31,32,32,35,35,36,36,41,41,43,43,44,44,45,45,47,47,48,48,50,50,51,51,52,52,54,54,55,55,56,56,57,57,58,58],"right_children":[2,4,6,8,10,12,14,16,18,20,22,24,26,28,30,32,34,-1,36,38,40,42,-1,44,46,48,50,52,54,56,58,60,62,-1,-1,64,66,-1,-1,-1,-1,68,-1,70,72,74,-1,76,78,-1,80,82,84,-1,86,88,90,92,94,-1,-1,-1,-1,-1,-1,-1,-1,-1,-1,-1,-1,-1,-1,-1,-1,-1,-1,-1,-1,-1,-1,-1,-1,-1,-1,-1,-1,-1,-1,-1,-1,-1,-1,-1,-1],"split_conditions":[2.436579E0,1.4002892E0,8.654987E0,4.2999997E0,-7.9333425E-2,1.0644168E0,9E0,1.5999999E0,7.5E0,-4.2147503E0,1E-1,6.7458314E-1,2.7998323E0,6.0068577E1,9.255571E0,1.59134655E1,6.7458314E-1,9.254295E0,1.0099999E1,-6.0980835E0,1.1265469E1,2.34E1,-5.146282E0,2.5828869E1,1E-1,3E-1,3.7954168E0,8.905908E0,1.08321175E2,3.1164997E0,9.346143E0,4.5648006E-1,2.0053997E1,-1.705893E0,-1.1634238E1,9.789416E0,1.1803998E1,-3.6225617E0,2.8955991E0,-1.6631166E1,-4.3390713E0,1.2181625E1,-4.217316E0,1.212706E1,2.8556467E2,9.33167E-1,3.5266504E0,3.349756E1,2.3831666E0,1.6778744E1,7.968939E0,1E-1,5.671658E1,-1.70043E1,1.5352501E0,2.0937836E2,1.8670416E1,-3.771E0,9.3669195E0,9.732985E0,-1.7717346E0,-4.7293396E0,-2.4917737E-1,-5.693825E-1,-6.4328732E0,7.841721E-1,6.2293673E0,-6.384865E-1,4.9614196E0,-5.7733355E0,1.2936935E1,-7.298447E-2,1.2132272E1,1.9567673E1,7.24758E0,-1.2432669E1,-2.414574E0,-3.9172945E0,1.344901E1,-7.022047E-1,2.346345E0,1.9928764E1,1.0553746E0,-1.0838544E1,6.334987E0,-1.2377711E1,-8.739064E-1,1.505459E0,3.3041584E1,-5.376065E0,5.158746E0,2.6334852E1,-1.4537594E1,5.7401156E0,-3.9353725E-2],"split_indices":[3,3,2,1,0,0,2,1,1,0,1,0,0,3,2,2,0,0,1,0,2,2,0,3,1,1,0,2,3,0,2,3,0,0,0,0,0,0,0,0,0,2,0,3,3,0,0,3,0,0,2,1,3,0,0,3,0,0,2,0,0,0,0,0,0,0,0,0,0,0,0,0,0,0,0,0,0,0,0,0,0,0,0,0,0,0,0,0,0,0,0,0,0,0,0],"split_type":[0,0,0,0,0,0,0,0,0,0,0,0,0,0,0,0,0,0,0,0,0,0,0,0,0,0,0,0,0,0,0,0,0,0,0,0,0,0,0,0,0,0,0,0,0,0,0,0,0,0,0,0,0,0,0,0,0,0,0,0,0,0,0,0,0,0,0,0,0,0,0,0,0,0,0,0,0,0,0,0,0,0,0,0,0,0,0,0,0,0,0,0,0,0,0],"sum_hessian":[4.055E3,4.8E1,4.007E3,3.2E1,1.6E1,2.47E2,3.76E3,2.6E1,6E0,7E0,9E0,7.5E1,1.72E2,4.3E1,3.717E3,2.2E1,4E0,2E0,4E0,2E0,5E0,4E0,5E0,6.9E1,6E0,1.5E1,1.57E2,1.3E1,3E1,6.8E1,3.649E3,8E0,1.4E1,1E0,3E0,2E0,2E0,1E0,1E0,3E0,2E0,3E0,1E0,1E1,5.9E1,5E0,1E0,1.2E1,3E0,3E0,1.54E2,7E0,6E0,4E0,2.6E1,2.3E1,4.5E1,1.1E1,3.638E3,4E0,4E0,1.1E1,3E0,1E0,1E0,1E0,1E0,1E0,2E0,2E0,8E0,5.5E1,4E0,3E0,2E0,4E0,8E0,2E0,1E0,9.4E1,6E1,3E0,4E0,5E0,1E0,7E0,1.9E1,1.8E1,5E0,2.4E1,2.1E1,1E0,1E1,1.5E1,3.623E3],"tree_param":{"num_deleted":"0","num_feature":"4","num_nodes":"95","size_leaf_vector":"1"}},{"base_weights":[5.810498E-2,1.086713E1,-3.0552063E-2,3.8418438E1,3.321712E0,-1.2625181E1,7.356951E-2,-1.0340309E0,6.82663E1,-1.7322975E1,6.624089E0,3.7788513E0,-2.8286556E1,5.3680134E0,-1.4601582E-1,-4.137012E0,2.3443956E0,-1.946045E-1,2.7436256E1,-6.1387987E0,-1.1855874E0,1.0730806E1,-1.1127599E1,-1.7127823E1,2.0126305E1,-3.30032E1,7.0769672E0,3.1796803E0,2.2333307E1,4.36844E-1,-1.9358963E0,1.4467884E0,1.9870144E1,-2.4759504E1,6.510004E0,-2.3935486E1,2.1967773E0,3.283907E1,-7.152605E0,3.785477E0,-3.688585E1,1.1080596E1,-4.230358E0,5.48365E0,3.2557304E1,-7.5756055E-1,2.827678E0,-7.9429135E0,-2.1228166E-1,-2.5952291E0,9.377154E0,7.402373E0,1.3048401E-1,-1.549213E0,-8.870994E0,-9.462534E0,-3.6740687E0,7.1529856E0,-6.164436E0,2.145848E0,2.8043478E1,-3.0082452E0,2.208046E-1,-1.2546843E1,-9.591263E-1,3.6256E-2,7.857995E0,-7.8830104E0,-1.12513185E-1,3.7952633E0,-6.7030406E0,1.7003733E1,3.2029207E0,3.7750784E-1,-8.5024744E-1,1.3010927E0,-1.8259783E0,-4.2581177E0,-1.7387553E0,5.7046103E-1,-1.0343636E0],"categories":[],"categories_nodes":[],"categories_segments":[],"categories_sizes":[],"default_left":[0,0,0,0,0,0,0,0,0,0,0,0,0,0,0,0,0,0,0,0,0,0,0,0,0,0,0,0,0,0,0,0,0,0,0,0,0,0,0,0,0,0,0,0,0,0,0,0,0,0,0,0,0,0,0,0,0,0,0,0,0,0,0,0,0,0,0,0,0,0,0,0,0,0,0,0,0,0,0,0,0],"id":11,"left_children":[1,3,5,7,9,11,13,15,17,19,21,23,25,27,29,-1,-1,-1,-1,-1,-1,31,33,35,37,39,-1,41,43,45,47,49,51,53,-1,55,57,59,61,-1,63,65,67,69,71,73,75,77,79,-1,-1,-1,-1,-1,-1,-1,-1,-1,-1,-1,-1,-1,-1,-1,-1,-1,-1,-1,-1,-1,-1,-1,-1,-1,-1,-1,-1,-1,-1,-1,-1],"loss_changes":[3.8871816E3,6.732629E3,5.2778916E3,8.313592E3,1.9555154E3,8.58491E3,4.641812E3,5.592598E2,6.451299E3,8.705554E1,1.8690359E3,6.1548247E3,4.9381504E3,5.831976E3,4.000664E3,0E0,0E0,0E0,0E0,0E0,0E0,1.6682478E3,2.7747961E3,1.1050242E3,3.702788E3,3.2995488E3,0E0,8.36042E3,2.9223418E3,8.263459E3,9.751577E3,3.5815305E3,9.2301855E2,2.2435303E2,0E0,1.471521E2,1.9669773E3,1.0234518E4,9.809567E1,0E0,2.3610898E3,1.142541E4,6.2798174E3,1.8782106E3,5.200746E3,8.083037E3,1.2996331E4,2.736121E3,5.0198833E3,0E0,0E0,0E0,0E0,0E0,0E0,0E0,0E0,0E0,0E0,0E0,0E0,0E0,0E0,0E0,0E0,0E0,0E0,0E0,0E0,0E0,0E0,0E0,0E0,0E0,0E0,0E0,0E0,0E0,0E0,0E0,0E0],"parents":[2147483647,0,0,1,1,2,2,3,3,4,4,5,5,6,6,7,7,8,8,9,9,10,10,11,11,12,12,13,13,14,14,21,21,22,22,23,23,24,24,25,25,27,27,28,28,29,29,30,30,31,31,32,32,33,33,35,35,36,36,37,37,38,38,40,40,41,41,42,42,43,43,44,44,45,45,46,46,47,47,48,48],"right_children":[2,4,6,8,10,12,14,16,18,20,22,24,26,28,30,-1,-1,-1,-1,-1,-1,32,34,36,38,40,-1,42,44,46,48,50,52,54,-1,56,58,60,62,-1,64,66,68,70,72,74,76,78,80,-1,-1,-1,-1,-1,-1,-1,-1,-1,-1,-1,-1,-1,-1,-1,-1,-1,-1,-1,-1,-1,-1,-1,-1,-1,-1,-1,-1,-1,-1,-1,-1],"split_conditions":[6.302571E0,-8.4808326E-1,6.87779E0,-1.6855832E0,-1.4391641E-1,6.5520988E0,8.39657E0,-1.8543334E0,5.771239E0,-2.5641662E-1,1.93415E1,-7.9333425E-2,2.1174833E1,8.311245E0,2.36915E1,-4.137012E0,2.3443956E0,-1.946045E-1,2.7436256E1,-6.1387987E0,-1.1855874E0,5.771239E0,2.4753746E1,2.3458281E2,1.843108E1,-1.6855832E0,7.0769672E0,1.0048068E2,5.206084E0,1.461E1,2.5045416E1,1.1000001E0,1.1000001E0,6.700268E1,6.510004E0,-8.4808326E-1,-1.1501666E0,1.1803998E1,2.4929E1,3.785477E0,4.3999996E0,4.9174866E1,1.1590644E2,3.1164997E0,1.7278751E1,1.6084589E1,3.2490424E2,5.446224E1,1.9513431E2,-2.5952291E0,9.377154E0,7.402373E0,1.3048401E-1,-1.549213E0,-8.870994E0,-9.462534E0,-3.6740687E0,7.1529856E0,-6.164436E0,2.145848E0,2.8043478E1,-3.0082452E0,2.208046E-1,-1.2546843E1,-9.591263E-1,3.6256E-2,7.857995E0,-7.8830104E0,-1.12513185E-1,3.7952633E0,-6.7030406E0,1.7003733E1,3.2029207E0,3.7750784E-1,-8.5024744E-1,1.3010927E0,-1.8259783E0,-4.2581177E0,-1.7387553E0,5.7046103E-1,-1.0343636E0],"split_indices":[2,0,2,0,0,2,2,0,2,0,0,0,0,2,0,0,0,0,0,0,0,2,0,3,0,0,0,3,0,0,0,1,1,3,0,0,0,0,0,0,1,3,3,0,0,2,3,3,3,0,0,0,0,0,0,0,0,0,0,0,0,0,0,0,0,0,0,0,0,0,0,0,0,0,0,0,0,0,0,0,0],"split_type":[0,0,0,0,0,0,0,0,0,0,0,0,0,0,0,0,0,0,0,0,0,0,0,0,0,0,0,0,0,0,0,0,0,0,0,0,0,0,0,0,0,0,0,0,0,0,0,0,0,0,0,0,0,0,0,0,0,0,0,0,0,0,0,0,0,0,0,0,0,0,0,0,0,0,0,0,0,0,0,0,0],"sum_hessian":[4.055E3,3.2E1,4.023E3,6E0,2.6E1,3.2E1,3.991E3,3E0,3E0,3E0,2.3E1,1.6E1,1.6E1,1.58E2,3.833E3,1E0,2E0,1E0,2E0,2E0,1E0,1.9E1,4E0,7E0,9E0,1.5E1,1E0,1.41E2,1.7E1,2.892E3,9.41E2,1E1,9E0,3E0,1E0,5E0,2E0,6E0,3E0,1E0,1.4E1,6.8E1,7.3E1,7E0,1E1,1.929E3,9.63E2,2.09E2,7.32E2,8E0,2E0,7E0,2E0,1E0,2E0,2E0,3E0,1E0,1E0,5E0,1E0,2E0,1E0,1.2E1,2E0,4E1,2.8E1,1E1,6.3E1,6E0,1E0,4E0,6E0,9.79E2,9.5E2,8.24E2,1.39E2,5.2E1,1.57E2,4.43E2,2.89E2],"tree_param":{"num_deleted":"0","num_feature":"4","num_nodes":"81","size_leaf_vector":"1"}},{"base_weights":[5.321866E-2,2.708399E-1,-3.9537656E0,1.3006549E-1,7.16344E0,-6.896626E0,4.6210494E0,8.800032E-1,-1.3237703E0,-7.104441E0,1.1636767E1,1.8169832E1,-8.020417E0,1.256528E1,-5.832792E0,-2.4187288E-1,6.739606E0,-5.535361E0,-5.6395672E-2,9.37893E0,-2.2877369E1,4.6327522E1,8.9510565E0,-9.665409E0,3.193748E1,-1.5449645E1,-2.3120418E0,1.8133844E1,-5.7110767E0,-8.518104E0,-1.2577282E0,2.0842083E0,-1.4998697E0,2.6771444E1,4.984163E0,-7.0035515E0,1.4094362E1,3.7124867E0,-2.6158125E0,-5.4228973E0,2.015063E1,2.0142746E0,-3.1114553E1,1.5345544E0,1.7507975E1,1.1694265E1,-1.192201E1,4.5427254E1,3.3052928E0,-1.250794E1,-3.4845795E1,-4.2889233E0,2.0611181E1,-5.14097E0,2.1703627E1,-7.2323217E0,7.4064565E-1,-1.9363194E1,5.6104293E0,4.473527E-1,1.903856E1,1.283715E0,-6.81128E-1,1.7210821E1,3.0766745E0,-5.319463E0,1.8192004E0,-1.80552E-1,-2.8800528E0,8.391077E0,-1.1898432E0,-4.1583765E-1,2.9481695E0,-4.1371328E-1,-2.3270752E0,4.1571043E-2,-2.7530198E0,9.150952E0,2.2045698E0,-1.2420065E1,-5.1514056E-2,-1.8283981E0,4.7243404E0,-4.1414065E0,-9.389191E-2,1.5816007E1,3.5323427E0,2.6410973E0,-1.1537156E0,-4.351394E0,8.679972E0,7.865456E-1,-1.2171858E1,-6.1384016E-1,-9.482692E0,1.1448497E1,-4.653002E0,1.0735817E0,-2.7721093E0,-8.609671E-1,7.7875953E0,-2.7663915E0,7.0523643E-1,-2.1375146E0,-7.1103015E0,-1.7552952E0,4.552491E0],"categories":[],"categories_nodes":[],"categories_segments":[],"categories_sizes":[],"default_left":[0,0,0,0,0,0,0,0,0,0,0,0,0,0,0,0,0,0,0,0,0,0,0,0,0,0,0,0,0,0,0,0,0,0,0,0,0,0,0,0,0,0,0,0,0,0,0,0,0,0,0,0,0,0,0,0,0,0,0,0,0,0,0,0,0,0,0,0,0,0,0,0,0,0,0,0,0,0,0,0,0,0,0,0,0,0,0,0,0,0,0,0,0,0,0,0,0,0,0,0,0,0,0,0,0,0,0],"id":12,"left_children":[1,3,5,7,9,11,13,15,17,19,21,23,25,27,29,31,33,35,37,39,41,43,45,-1,47,49,51,53,55,-1,57,59,61,63,65,67,69,71,73,75,77,-1,79,-1,-1,81,83,85,87,89,91,93,95,97,99,101,-1,103,105,-1,-1,-1,-1,-1,-1,-1,-1,-1,-1,-1,-1,-1,-1,-1,-1,-1,-1,-1,-1,-1,-1,-1,-1,-1,-1,-1,-1,-1,-1,-1,-1,-1,-1,-1,-1,-1,-1,-1,-1,-1,-1,-1,-1,-1,-1,-1,-1],"loss_changes":[3.5379224E3,3.732789E3,5.305878E3,4.1137246E3,4.9971904E3,4.5401636E3,4.5578677E3,1.63636875E4,6.853247E3,5.154394E3,5.0823105E3,5.8850186E3,6.3256025E3,3.2585298E3,2.4415083E3,6.11889E3,1.3932465E4,8.658303E3,9.540099E3,1.7036833E3,2.6464272E3,1.6850098E3,3.345933E3,0E0,2.1672993E3,3.2729043E3,3.9856187E3,2.1056416E3,1.1740427E2,0E0,2.7200107E3,2.6622203E4,6.052418E3,1.5582898E4,9.158831E3,4.59875E3,5.373652E3,1.2484307E4,3.7343745E3,1.0565578E2,5.710488E2,0E0,2.5390322E3,0E0,0E0,3.7013809E3,1.48672E2,3.6093652E2,1.5181299E2,5.2189277E3,1.8230088E3,4.837174E3,5.029495E3,1.7604752E2,2.2702783E3,1.551018E2,0E0,1.4964966E2,1.842759E3,0E0,0E0,0E0,0E0,0E0,0E0,0E0,0E0,0E0,0E0,0E0,0E0,0E0,0E0,0E0,0E0,0E0,0E0,0E0,0E0,0E0,0E0,0E0,0E0,0E0,0E0,0E0,0E0,0E0,0E0,0E0,0E0,0E0,0E0,0E0,0E0,0E0,0E0,0E0,0E0,0E0,0E0,0E0,0E0,0E0,0E0,0E0,0E0],"parents":[2147483647,0,0,1,1,2,2,3,3,4,4,5,5,6,6,7,7,8,8,9,9,10,10,11,11,12,12,13,13,14,14,15,15,16,16,17,17,18,18,19,19,20,20,21,21,22,22,24,24,25,25,26,26,27,27,28,28,30,30,31,31,32,32,33,33,34,34,35,35,36,36,37,37,38,38,39,39,40,40,42,42,45,45,46,46,47,47,48,48,49,49,50,50,51,51,52,52,53,53,54,54,55,55,57,57,58,58],"right_children":[2,4,6,8,10,12,14,16,18,20,22,24,26,28,30,32,34,36,38,40,42,44,46,-1,48,50,52,54,56,-1,58,60,62,64,66,68,70,72,74,76,78,-1,80,-1,-1,82,84,86,88,90,92,94,96,98,100,102,-1,104,106,-1,-1,-1,-1,-1,-1,-1,-1,-1,-1,-1,-1,-1,-1,-1,-1,-1,-1,-1,-1,-1,-1,-1,-1,-1,-1,-1,-1,-1,-1,-1,-1,-1,-1,-1,-1,-1,-1,-1,-1,-1,-1,-1,-1,-1,-1,-1,-1],"split_conditions":[8.8E0,6.2E0,2.603733E1,2.0183165E1,1.2762082E1,5.8185825E0,1.4068372E2,1.5539417E1,1.1590644E2,1.4039999E1,1.3331081E1,1.1212135E1,1.6099998E1,3.3399998E1,1.0099999E1,1.26462E1,1.5878998E1,4.3999996E0,1.9431354E2,1.1265469E1,-2.0439165E0,6.3E0,3.4504022E2,-9.665409E0,1.4099999E1,2.5524584E1,2.8802248E1,2.5828869E1,2.19718E1,-8.518104E0,1.4989543E2,1.2605142E1,2.5828869E1,1.6843147E2,1.212706E1,1.1265469E1,5.4E0,1.4934577E1,3.255438E2,6.5520988E0,6.0498333E0,2.0142746E0,2.05484E1,1.5345544E0,1.7507975E1,4.4409443E1,2.6095665E1,5.4102516E0,1.1977502E0,2.5151665E1,9.921769E0,3.4954016E2,3.1104082E1,2.6754E1,1.1525623E1,7.94E1,7.4064565E-1,1.6099998E1,2.7933168E1,4.473527E-1,1.903856E1,1.283715E0,-6.81128E-1,1.7210821E1,3.0766745E0,-5.319463E0,1.8192004E0,-1.80552E-1,-2.8800528E0,8.391077E0,-1.1898432E0,-4.1583765E-1,2.9481695E0,-4.1371328E-1,-2.3270752E0,4.1571043E-2,-2.7530198E0,9.150952E0,2.2045698E0,-1.2420065E1,-5.1514056E-2,-1.8283981E0,4.7243404E0,-4.1414065E0,-9.389191E-2,1.5816007E1,3.5323427E0,2.6410973E0,-1.1537156E0,-4.351394E0,8.679972E0,7.865456E-1,-1.2171858E1,-6.1384016E-1,-9.482692E0,1.1448497E1,-4.653002E0,1.0735817E0,-2.7721093E0,-8.609671E-1,7.7875953E0,-2.7663915E0,7.0523643E-1,-2.1375146E0,-7.1103015E0,-1.7552952E0,4.552491E0],"split_indices":[1,1,0,0,0,0,3,0,3,2,0,2,1,1,1,2,0,1,3,2,0,1,3,0,1,0,2,3,2,0,3,2,3,3,3,2,1,2,3,2,0,0,2,0,0,3,0,0,0,0,3,3,2,0,2,1,0,1,0,0,0,0,0,0,0,0,0,0,0,0,0,0,0,0,0,0,0,0,0,0,0,0,0,0,0,0,0,0,0,0,0,0,0,0,0,0,0,0,0,0,0,0,0,0,0,0,0],"split_type":[0,0,0,0,0,0,0,0,0,0,0,0,0,0,0,0,0,0,0,0,0,0,0,0,0,0,0,0,0,0,0,0,0,0,0,0,0,0,0,0,0,0,0,0,0,0,0,0,0,0,0,0,0,0,0,0,0,0,0,0,0,0,0,0,0,0,0,0,0,0,0,0,0,0,0,0,0,0,0,0,0,0,0,0,0,0,0,0,0,0,0,0,0,0,0,0,0,0,0,0,0,0,0,0,0,0,0],"sum_hessian":[4.055E3,3.847E3,2.08E2,3.771E3,7.6E1,1.55E2,5.3E1,2.488E3,1.283E3,1.8E1,5.8E1,6E0,1.49E2,3E1,2.3E1,2.089E3,3.99E2,2.96E2,9.87E2,9E0,9E0,3E0,5.5E1,1E0,5E0,6.4E1,8.5E1,2.3E1,7E0,3E0,2E1,7.33E2,1.356E3,3.1E1,3.68E2,2.76E2,2E1,3.99E2,5.88E2,4E0,5E0,2E0,7E0,1E0,2E0,4.9E1,6E0,3E0,2E0,5.7E1,7E0,7.9E1,6E0,3E0,2E1,6E0,1E0,5E0,1.5E1,7.27E2,6E0,1.59E2,1.197E3,1E1,2.1E1,1.6E1,3.52E2,8E1,1.96E2,1.1E1,9E0,2.18E2,1.81E2,4.75E2,1.13E2,2E0,2E0,2E0,3E0,5E0,2E0,9E0,4E1,5E0,1E0,2E0,1E0,1E0,1E0,5.5E1,2E0,1E0,6E0,7.4E1,5E0,4E0,2E0,1E0,2E0,3E0,1.7E1,5E0,1E0,2E0,3E0,7E0,8E0],"tree_param":{"num_deleted":"0","num_feature":"4","num_nodes":"107","size_leaf_vector":"1"}},{"base_weights":[4.8704784E-2,-1.9359806E-1,2.887825E0,4.501776E-2,-5.564988E0,-8.006423E0,5.7072444E0,-1.2913632E-1,8.653974E0,-1.4392775E1,-1.8440065E0,1.4435226E0,-1.5007529E1,2.6467287E1,1.8183657E0,3.343504E-2,-1.1379744E1,2.0462736E1,2.934473E0,-2.3644333E1,-7.27049E0,1.6580284E0,-1.4237491E1,-5.8313756E0,8.622186E0,-2.5216007E1,-9.326077E0,5.4513645E1,1.530138E1,2.2369146E1,-6.401127E-1,1.7132541E0,-5.781435E-1,-1.9374771E1,8.56697E0,2.461102E1,-1.5396164E1,-2.7293844E0,2.2748652E1,7.0936847E0,-2.7377783E1,2.4683197E1,-1.5290126E1,-3.7597082E0,1.191572E1,-5.669798E0,-2.8838968E1,-9.427424E0,1.1695294E1,6.066433E-1,2.0544394E1,-1.4695042E1,-1.6441607E1,1.6588734E1,-1.3427519E1,1.853757E1,-2.7403383E0,3.7093868E0,4.671569E1,1.9536002E0,4.8713997E1,2.646712E0,-1.6088697E1,2.0628564E-1,4.788541E0,-1.86587E0,-1.5552602E-3,8.275839E-1,-8.056421E0,1.581303E1,-6.8367124E-1,8.726506E0,-3.58473E0,-6.262418E0,-6.658562E-1,2.3833942E0,-3.1500654E0,1.9219337E1,-2.2584859E-1,-4.4377584E0,-1.1915337E1,1.3484443E0,1.8843767E1,-1.6699535E0,-9.847828E0,4.798317E0,-2.435272E0,1.1889427E1,6.541989E-1,-6.6329513E0,3.4200656E0,-1.29067E1,-1.0625382E-1,-1.297179E0,-4.3982544E0,-3.4388719E0,8.701755E0,5.7693005E0,-4.504429E0,-1.7525866E0,8.097016E0,-5.31094E-1,-5.3195114E0,8.432465E0,-2.6954567E0,-1.2017789E1,-2.2289367E0,-1.7049435E0,6.6092334E0,3.0238737E1,3.5669076E0,-8.790627E0,3.9425116E0,2.819756E1,4.7645373E0,-4.093884E0,1.644492E0,-6.357495E0,1.9864492E0],"categories":[],"categories_nodes":[],"categories_segments":[],"categories_sizes":[],"default_left":[0,0,0,0,0,0,0,0,0,0,0,0,0,0,0,0,0,0,0,0,0,0,0,0,0,0,0,0,0,0,0,0,0,0,0,0,0,0,0,0,0,0,0,0,0,0,0,0,0,0,0,0,0,0,0,0,0,0,0,0,0,0,0,0,0,0,0,0,0,0,0,0,0,0,0,0,0,0,0,0,0,0,0,0,0,0,0,0,0,0,0,0,0,0,0,0,0,0,0,0,0,0,0,0,0,0,0,0,0,0,0,0,0,0,0,0,0,0,0],"id":13,"left_children":[1,3,5,7,9,11,13,15,17,19,21,23,25,27,29,31,33,35,37,39,41,43,45,47,49,51,53,55,57,59,61,63,65,67,69,71,73,75,77,-1,79,81,83,85,87,89,91,93,95,97,99,-1,101,103,105,-1,-1,107,109,111,113,115,117,-1,-1,-1,-1,-1,-1,-1,-1,-1,-1,-1,-1,-1,-1,-1,-1,-1,-1,-1,-1,-1,-1,-1,-1,-1,-1,-1,-1,-1,-1,-1,-1,-1,-1,-1,-1,-1,-1,-1,-1,-1,-1,-1,-1,-1,-1,-1,-1,-1,-1,-1,-1,-1,-1,-1,-1],"loss_changes":[2.7907905E3,4.79124E3,9.843926E3,5.3685566E3,5.196296E3,4.3882275E3,2.0458127E4,6.420264E3,4.735308E3,2.9250293E3,4.928079E3,1.5647765E3,1.968794E3,1.1692387E4,1.0876904E4,3.5566187E3,8.1397085E3,3.8002324E3,5.5611E3,4.178458E3,7.5526035E3,4.9908384E3,2.9640127E3,1.055658E3,1.4209812E3,1.9057217E3,2.9862358E3,5.6601504E3,1.0751346E4,1.2275256E4,9.842502E3,1.3492189E4,8.203559E3,6.034131E3,7.3016836E3,3.7851074E3,1.7023529E2,3.318319E3,1.0729035E4,0E0,2.3632139E3,4.336289E3,3.7390708E3,5.2088906E3,8.277811E3,5.022796E3,3.620854E3,2.8382117E2,1.5351351E3,3.1981353E3,1.1781394E3,0E0,1.7681079E2,1.4309263E3,3.376163E3,0E0,0E0,4.0831416E3,1.3868719E4,5.2807656E3,1.3372961E4,7.465116E3,4.0805469E3,0E0,0E0,0E0,0E0,0E0,0E0,0E0,0E0,0E0,0E0,0E0,0E0,0E0,0E0,0E0,0E0,0E0,0E0,0E0,0E0,0E0,0E0,0E0,0E0,0E0,0E0,0E0,0E0,0E0,0E0,0E0,0E0,0E0,0E0,0E0,0E0,0E0,0E0,0E0,0E0,0E0,0E0,0E0,0E0,0E0,0E0,0E0,0E0,0E0,0E0,0E0,0E0,0E0,0E0,0E0,0E0],"parents":[2147483647,0,0,1,1,2,2,3,3,4,4,5,5,6,6,7,7,8,8,9,9,10,10,11,11,12,12,13,13,14,14,15,15,16,16,17,17,18,18,19,19,20,20,21,21,22,22,23,23,24,24,25,25,26,26,27,27,28,28,29,29,30,30,31,31,32,32,33,33,34,34,35,35,36,36,37,37,38,38,40,40,41,41,42,42,43,43,44,44,45,45,46,46,47,47,48,48,49,49,50,50,52,52,53,53,54,54,57,57,58,58,59,59,60,60,61,61,62,62],"right_children":[2,4,6,8,10,12,14,16,18,20,22,24,26,28,30,32,34,36,38,40,42,44,46,48,50,52,54,56,58,60,62,64,66,68,70,72,74,76,78,-1,80,82,84,86,88,90,92,94,96,98,100,-1,102,104,106,-1,-1,108,110,112,114,116,118,-1,-1,-1,-1,-1,-1,-1,-1,-1,-1,-1,-1,-1,-1,-1,-1,-1,-1,-1,-1,-1,-1,-1,-1,-1,-1,-1,-1,-1,-1,-1,-1,-1,-1,-1,-1,-1,-1,-1,-1,-1,-1,-1,-1,-1,-1,-1,-1,-1,-1,-1,-1,-1,-1,-1,-1],"split_conditions":[3.4430496E2,3.367043E2,-1.6855832E0,3.360171E1,-6.6683334E-1,-4.0418334E0,7.9358315E-1,3.0652895E1,3.5132755E1,1.792966E1,2.8357855E1,-5.3418336E0,-3.1585E0,1.5986595E1,3.457536E2,3.7954168E0,2.1668581E1,3.227581E2,3.2687796E2,9.255571E0,1.8844202E1,2.266857E1,1.6956081E1,3.5477307E2,2.2104116E1,1.1212135E1,1.1384199E1,3.575926E2,2.5711662E1,2.8082308E1,2.862396E1,2.7998323E0,7.7331676E0,-3.3418334E0,2.2058165E1,1.3000002E0,2.1724997E0,3.020673E2,2.7998323E0,7.0936847E0,-2.3084998E0,1.8671474E1,-1.5066668E0,1.0829959E1,3.285E0,1.0568334E1,3.249785E1,3.5034222E2,-7.5376663E0,1.6084589E1,3.457536E2,-1.4695042E1,1.2337553E1,-2.1293335E0,1.3493999E1,1.853757E1,-2.7403383E0,3.5477307E2,2.6282463E1,5.4102516E0,3.1581665E1,4.6560826E0,4E-1,2.0628564E-1,4.788541E0,-1.86587E0,-1.5552602E-3,8.275839E-1,-8.056421E0,1.581303E1,-6.8367124E-1,8.726506E0,-3.58473E0,-6.262418E0,-6.658562E-1,2.3833942E0,-3.1500654E0,1.9219337E1,-2.2584859E-1,-4.4377584E0,-1.1915337E1,1.3484443E0,1.8843767E1,-1.6699535E0,-9.847828E0,4.798317E0,-2.435272E0,1.1889427E1,6.541989E-1,-6.6329513E0,3.4200656E0,-1.29067E1,-1.0625382E-1,-1.297179E0,-4.3982544E0,-3.4388719E0,8.701755E0,5.7693005E0,-4.504429E0,-1.7525866E0,8.097016E0,-5.31094E-1,-5.3195114E0,8.432465E0,-2.6954567E0,-1.2017789E1,-2.2289367E0,-1.7049435E0,6.6092334E0,3.0238737E1,3.5669076E0,-8.790627E0,3.9425116E0,2.819756E1,4.7645373E0,-4.093884E0,1.644492E0,-6.357495E0,1.9864492E0],"split_indices":[3,3,0,2,0,0,0,2,2,2,2,0,0,2,3,0,0,3,3,2,2,2,0,3,2,2,2,3,2,2,2,0,0,0,0,1,0,3,0,0,0,2,0,2,0,0,2,3,0,2,3,0,2,0,2,0,0,3,2,0,2,0,1,0,0,0,0,0,0,0,0,0,0,0,0,0,0,0,0,0,0,0,0,0,0,0,0,0,0,0,0,0,0,0,0,0,0,0,0,0,0,0,0,0,0,0,0,0,0,0,0,0,0,0,0,0,0,0,0],"split_type":[0,0,0,0,0,0,0,0,0,0,0,0,0,0,0,0,0,0,0,0,0,0,0,0,0,0,0,0,0,0,0,0,0,0,0,0,0,0,0,0,0,0,0,0,0,0,0,0,0,0,0,0,0,0,0,0,0,0,0,0,0,0,0,0,0,0,0,0,0,0,0,0,0,0,0,0,0,0,0,0,0,0,0,0,0,0,0,0,0,0,0,0,0,0,0,0,0,0,0,0,0,0,0,0,0,0,0,0,0,0,0,0,0,0,0,0,0,0,0],"sum_hessian":[4.055E3,3.737E3,3.18E2,3.579E3,1.58E2,6.5E1,2.53E2,3.509E3,7E1,4.6E1,1.12E2,2.8E1,3.7E1,3.9E1,2.14E2,3.46E3,4.9E1,2.2E1,4.8E1,1.9E1,2.7E1,8.8E1,2.4E1,1.4E1,1.4E1,1.2E1,2.5E1,1E1,2.9E1,2.2E1,1.92E2,9.23E2,2.537E3,3.5E1,1.4E1,2E1,2E0,3.8E1,1E1,1E0,1.8E1,5E0,2.2E1,5.8E1,3E1,1.6E1,8E0,1.2E1,2E0,9E0,5E0,2E0,1E1,3E0,2.2E1,9E0,1E0,2.2E1,7E0,1.3E1,9E0,1.59E2,3.3E1,8.62E2,6.1E1,2.33E2,2.304E3,9E0,2.6E1,2E0,1.2E1,1.8E1,2E0,1E0,1E0,1.6E1,2.2E1,3E0,7E0,1E1,8E0,4E0,1E0,1.5E1,7E0,1E1,4.8E1,7E0,2.3E1,8E0,8E0,5E0,3E0,7E0,5E0,1E0,1E0,4E0,5E0,1E0,4E0,1E0,9E0,2E0,1E0,3E0,1.9E1,1.5E1,7E0,2E0,5E0,3E0,1E1,3E0,6E0,2.3E1,1.36E2,2.7E1,6E0],"tree_param":{"num_deleted":"0","num_feature":"4","num_nodes":"119","size_leaf_vector":"1"}},{"base_weights":[5.3691458E-2,-7.398355E0,1.4478342E-1,-1.0357947E1,6.9062705E0,6.2350836E0,-4.670609E-3,-7.1615095E0,-2.7810247E1,7.413132E0,-1.7106978E0,-6.0753345E-2,3.549578E1,-1.38232155E1,1.1282917E-1,-2.811309E1,-3.6640277E0,-1.5534943E0,-3.130097E1,-4.7174873E0,1.27312355E1,5.1170015E0,-1.4851446E1,4.574595E1,-8.276093E0,-1.6784842E1,2.1387987E1,9.902812E0,3.1428583E-2,-1.0992382E1,-3.0641634E0,1.2400395E1,-6.4489737E0,-1.0837817E1,-1.8000945E0,3.5838954E0,6.0259886E0,-1.5942572E0,5.615857E1,-2.0890862E1,8.652857E0,5.504822E1,-9.812549E0,-8.241347E0,-2.4279282E1,1.2101784E-1,9.503577E0,2.5180775E1,-6.9489484E0,-8.566826E0,1.4223422E-1,-3.4409761E0,1.5726019E0,3.1283686E-1,1.2999161E0,4.5301503E-1,-1.2232684E1,2.346288E1,2.0619966E-1,3.552293E0,-8.625183E0,5.1153316E0,-3.7410212E0,4.13204E0,2.1558651E1,2.6952074E0,-7.110854E0,-7.1164575E0,-3.3134863E-1,3.1911347E0,-8.194856E0,-1.1405809E1,9.452098E0,4.9043264E0,-5.7073555E0,-6.4232545E0,2.450853E0,3.0371087E0,-8.596577E-3],"categories":[],"categories_nodes":[],"categories_segments":[],"categories_sizes":[],"default_left":[0,0,0,0,0,0,0,0,0,0,0,0,0,0,0,0,0,0,0,0,0,0,0,0,0,0,0,0,0,0,0,0,0,0,0,0,0,0,0,0,0,0,0,0,0,0,0,0,0,0,0,0,0,0,0,0,0,0,0,0,0,0,0,0,0,0,0,0,0,0,0,0,0,0,0,0,0,0,0],"id":14,"left_children":[1,3,5,7,9,11,13,15,17,-1,19,21,23,25,27,29,31,-1,33,-1,35,37,39,41,-1,43,45,47,49,-1,-1,-1,51,-1,-1,53,-1,55,57,59,61,63,65,67,69,-1,-1,71,73,75,77,-1,-1,-1,-1,-1,-1,-1,-1,-1,-1,-1,-1,-1,-1,-1,-1,-1,-1,-1,-1,-1,-1,-1,-1,-1,-1,-1,-1],"loss_changes":[2.754371E3,2.145992E3,3.6481907E3,2.0880288E3,1.4230336E3,1.7687334E4,6.3550034E3,2.5349927E3,3.119248E2,0E0,1.6169491E3,6.202601E3,1.225434E4,3.800313E3,3.092498E3,3.889895E2,4.27677E3,0E0,3.936211E2,0E0,1.9714075E2,2.0642723E4,3.1617627E3,8.292467E3,0E0,1.7847959E3,6.3505347E2,8.413718E3,3.6692485E3,0E0,0E0,0E0,1.8798191E3,0E0,0E0,1.1926079E0,0E0,6.629645E3,8.508631E3,4.713925E3,1.0996064E3,8.0321016E3,9.9621704E2,1.7414752E3,1.987168E3,0E0,0E0,7.9947793E3,4.812143E3,1.0708047E4,6.4854634E3,0E0,0E0,0E0,0E0,0E0,0E0,0E0,0E0,0E0,0E0,0E0,0E0,0E0,0E0,0E0,0E0,0E0,0E0,0E0,0E0,0E0,0E0,0E0,0E0,0E0,0E0,0E0,0E0],"parents":[2147483647,0,0,1,1,2,2,3,3,4,4,5,5,6,6,7,7,8,8,10,10,11,11,12,12,13,13,14,14,15,15,16,16,18,18,20,20,21,21,22,22,23,23,25,25,26,26,27,27,28,28,32,32,35,35,37,37,38,38,39,39,40,40,41,41,42,42,43,43,44,44,47,47,48,48,49,49,50,50],"right_children":[2,4,6,8,10,12,14,16,18,-1,20,22,24,26,28,30,32,-1,34,-1,36,38,40,42,-1,44,46,48,50,-1,-1,-1,52,-1,-1,54,-1,56,58,60,62,64,66,68,70,-1,-1,72,74,76,78,-1,-1,-1,-1,-1,-1,-1,-1,-1,-1,-1,-1,-1,-1,-1,-1,-1,-1,-1,-1,-1,-1,-1,-1,-1,-1,-1,-1],"split_conditions":[2.436579E0,4.2999997E0,7.0332823E0,1.5999999E0,4.5648006E-1,6.283929E0,8.665152E0,8.654987E0,6.7458314E-1,7.413132E0,9.2E0,2.0345573E1,5E-1,2.69E1,1.057468E1,-1.8543334E0,1.0137692E1,-1.5534943E0,2.3293585E1,-4.7174873E0,1.1803998E1,1.9171478E1,2.1668581E1,2.4753746E1,-8.276093E0,7.7710657E0,1.1601916E1,1.1601916E1,1.3042619E1,-1.0992382E1,-3.0641634E0,1.2400395E1,1.2351666E1,-1.0837817E1,-1.8000945E0,9.789416E0,6.0259886E0,1.8892282E1,1.9881649E1,3.3525035E-1,2.3454002E1,9.793058E0,2.6276918E1,-7.9333425E-2,9.114471E0,1.2101784E-1,9.503577E0,9.114471E0,1.1681987E1,1.0847751E1,1.7276735E1,-3.4409761E0,1.5726019E0,3.1283686E-1,1.2999161E0,4.5301503E-1,-1.2232684E1,2.346288E1,2.0619966E-1,3.552293E0,-8.625183E0,5.1153316E0,-3.7410212E0,4.13204E0,2.1558651E1,2.6952074E0,-7.110854E0,-7.1164575E0,-3.3134863E-1,3.1911347E0,-8.194856E0,-1.1405809E1,9.452098E0,4.9043264E0,-5.7073555E0,-6.4232545E0,2.450853E0,3.0371087E0,-8.596577E-3],"split_indices":[3,1,3,1,3,3,3,2,0,0,1,2,1,1,3,0,2,0,0,0,0,2,0,0,0,3,0,0,3,0,0,0,0,0,0,0,0,2,2,0,0,2,0,0,2,0,0,2,2,0,3,0,0,0,0,0,0,0,0,0,0,0,0,0,0,0,0,0,0,0,0,0,0,0,0,0,0,0,0],"split_type":[0,0,0,0,0,0,0,0,0,0,0,0,0,0,0,0,0,0,0,0,0,0,0,0,0,0,0,0,0,0,0,0,0,0,0,0,0,0,0,0,0,0,0,0,0,0,0,0,0,0,0,0,0,0,0,0,0,0,0,0,0,0,0,0,0,0,0,0,0,0,0,0,0,0,0,0,0,0,0],"sum_hessian":[4.055E3,4.8E1,4.007E3,4E1,8E0,9.5E1,3.912E3,3.5E1,5E0,2E0,6E0,7.9E1,1.6E1,3.2E1,3.88E3,4E0,3.1E1,1E0,4E0,3E0,3E0,5.9E1,2E1,1.4E1,2E0,3E1,2E0,3.1E1,3.849E3,2E0,2E0,1E0,3E1,3E0,1E0,2E0,1E0,5.3E1,6E0,1.6E1,4E0,1.2E1,2E0,1.5E1,1.5E1,1E0,1E0,1.6E1,1.5E1,4.8E1,3.801E3,2.1E1,9E0,1E0,1E0,5E1,3E0,4E0,2E0,3E0,1.3E1,3E0,1E0,4E0,8E0,1E0,1E0,4E0,1.1E1,1E0,1.4E1,1E0,1.5E1,5E0,1E1,2.7E1,2.1E1,6.3E1,3.738E3],"tree_param":{"num_deleted":"0","num_feature":"4","num_nodes":"79","size_leaf_vector":"1"}},{"base_weights":[3.9379116E-2,-5.5713587E0,1.5367247E-1,-8.759416E0,1.5095094E0,1.5273613E0,-3.4620324E-1,-9.232397E0,2.5881822E0,-1.1415353E0,6.664409E0,1.2927023E0,2.8812752E1,-5.2037554E0,2.1491608E-1,-1.4323767E1,-7.315455E0,-1.0459665E1,2.5456004E0,1.1088724E0,3.3186222E1,-2.886571E0,3.481982E1,-7.109553E0,2.5260468E1,2.1447865E1,-5.643592E-2,-3.1493416E0,-1.7085033E1,3.9669068E0,-1.0512671E1,-1.3695831E0,-1.3821781E1,2.0464193E1,-2.4023976E0,5.888165E-1,9.513894E0,7.435388E0,2.429106E1,1.2572074E1,2.711712E0,-3.610083E0,-1.6189054E1,-7.174539E0,3.8287357E1,1.1355437E1,2.2708311E1,2.8882122E-2,-2.2011656E1,-2.8802001E0,2.4306955E0,-6.668832E0,-3.2909222E0,-3.5147727E-1,4.9041796E0,-3.6308818E0,-1.2090659E0,-1.3616123E0,7.4529994E-1,-5.0871058E0,-1.8237854E0,-2.707652E0,9.99078E0,-2.1757944E0,3.824686E0,2.4813338E-1,-4.8146296E0,6.0979223E0,-5.900132E0,4.740961E0,-3.9053812E0,-4.1014705E0,-6.9934E-2,2.806331E0,-6.5503936E0,2.5286074E0,-5.124998E0,1.6435623E1,-3.7588801E0,6.4900427E0,-7.2112384E0,-3.1386678E0,4.8265886E-2,6.573925E0,-8.798091E0],"categories":[],"categories_nodes":[],"categories_segments":[],"categories_sizes":[],"default_left":[0,0,0,0,0,0,0,0,0,0,0,0,0,0,0,0,0,0,0,0,0,0,0,0,0,0,0,0,0,0,0,0,0,0,0,0,0,0,0,0,0,0,0,0,0,0,0,0,0,0,0,0,0,0,0,0,0,0,0,0,0,0,0,0,0,0,0,0,0,0,0,0,0,0,0,0,0,0,0,0,0,0,0,0,0],"id":15,"left_children":[1,3,5,7,9,11,13,15,-1,17,-1,19,21,23,25,27,29,31,33,35,37,-1,39,41,43,45,47,49,51,53,55,57,59,61,63,65,67,69,-1,-1,-1,71,73,75,77,79,-1,81,83,-1,-1,-1,-1,-1,-1,-1,-1,-1,-1,-1,-1,-1,-1,-1,-1,-1,-1,-1,-1,-1,-1,-1,-1,-1,-1,-1,-1,-1,-1,-1,-1,-1,-1,-1,-1],"loss_changes":[2.6018472E3,1.8417336E3,2.7307432E3,5.401709E2,1.4525087E3,6.7560835E3,7.949161E3,4.3200732E2,0E0,8.5119916E2,0E0,6.136924E3,2.4129492E3,1.77133E4,1.5067802E4,3.7817114E2,1.5567334E3,1.950033E2,1.6450641E3,4.57529E3,6.780817E3,0E0,1.0828867E3,8.996988E3,7.8801855E3,1.720726E4,4.83905E3,3.6814014E2,1.0220386E2,6.553168E2,2.9141406E2,4.7916286E1,1.8286255E1,1.8149756E3,1.1947812E3,3.9303452E3,1.9646477E4,1.0614734E3,0E0,0E0,0E0,7.030121E3,1.15966875E4,1.0716445E3,1.1585385E4,1.1069329E4,0E0,3.5663381E3,3.855877E3,0E0,0E0,0E0,0E0,0E0,0E0,0E0,0E0,0E0,0E0,0E0,0E0,0E0,0E0,0E0,0E0,0E0,0E0,0E0,0E0,0E0,0E0,0E0,0E0,0E0,0E0,0E0,0E0,0E0,0E0,0E0,0E0,0E0,0E0,0E0,0E0],"parents":[2147483647,0,0,1,1,2,2,3,3,4,4,5,5,6,6,7,7,9,9,11,11,12,12,13,13,14,14,15,15,16,16,17,17,18,18,19,19,20,20,22,22,23,23,24,24,25,25,26,26,27,27,28,28,29,29,30,30,31,31,32,32,33,33,34,34,35,35,36,36,37,37,41,41,42,42,43,43,44,44,45,45,47,47,48,48],"right_children":[2,4,6,8,10,12,14,16,-1,18,-1,20,22,24,26,28,30,32,34,36,38,-1,40,42,44,46,48,50,52,54,56,58,60,62,64,66,68,70,-1,-1,-1,72,74,76,78,80,-1,82,84,-1,-1,-1,-1,-1,-1,-1,-1,-1,-1,-1,-1,-1,-1,-1,-1,-1,-1,-1,-1,-1,-1,-1,-1,-1,-1,-1,-1,-1,-1,-1,-1,-1,-1,-1,-1],"split_conditions":[-5.731416E0,3.3222754E2,3.5748332E0,4E-1,2.862396E1,3.5132755E1,7.7331676E0,1.1988594E1,2.5881822E0,1.7782688E1,6.664409E0,3.592927E2,3.1001248E2,1.5000001E0,8.2248335E0,2.0581345E1,1.484318E1,3.3753223E2,2.34E1,2.7998323E0,2.34E1,-2.886571E0,3.367043E2,1.9530622E1,1.0594036E1,3.4383316E2,3.592927E2,1.7276735E1,1.0137692E1,2.786748E2,3.1800534E2,-7.5376663E0,1.5277749E1,3.3528683E2,3.5100632E2,3.8E0,1.80036E1,6.2333345E-2,2.429106E1,1.2572074E1,2.711712E0,1.0261578E1,4.5289993E0,6.5520988E0,2.777838E1,2.19718E1,2.2708311E1,8.529E0,1.0538843E1,-2.8802001E0,2.4306955E0,-6.668832E0,-3.2909222E0,-3.5147727E-1,4.9041796E0,-3.6308818E0,-1.2090659E0,-1.3616123E0,7.4529994E-1,-5.0871058E0,-1.8237854E0,-2.707652E0,9.99078E0,-2.1757944E0,3.824686E0,2.4813338E-1,-4.8146296E0,6.0979223E0,-5.900132E0,4.740961E0,-3.9053812E0,-4.1014705E0,-6.9934E-2,2.806331E0,-6.5503936E0,2.5286074E0,-5.124998E0,1.6435623E1,-3.7588801E0,6.4900427E0,-7.2112384E0,-3.1386678E0,4.8265886E-2,6.573925E0,-8.798091E0],"split_indices":[0,3,0,1,2,2,0,2,0,2,0,3,3,1,0,3,2,3,2,0,2,0,3,2,2,3,3,3,2,3,3,0,2,3,3,1,2,0,0,0,0,2,0,2,2,2,0,0,2,0,0,0,0,0,0,0,0,0,0,0,0,0,0,0,0,0,0,0,0,0,0,0,0,0,0,0,0,0,0,0,0,0,0,0,0],"split_type":[0,0,0,0,0,0,0,0,0,0,0,0,0,0,0,0,0,0,0,0,0,0,0,0,0,0,0,0,0,0,0,0,0,0,0,0,0,0,0,0,0,0,0,0,0,0,0,0,0,0,0,0,0,0,0,0,0,0,0,0,0,0,0,0,0,0,0,0,0,0,0,0,0,0,0,0,0,0,0,0,0,0,0,0,0],"sum_hessian":[4.055E3,8E1,3.975E3,5.5E1,2.5E1,1.06E3,2.915E3,5.4E1,1E0,2.3E1,2E0,1.052E3,8E0,3.01E2,2.614E3,1.3E1,4.1E1,6E0,1.7E1,1.047E3,5E0,1E0,7E0,2.84E2,1.7E1,3.2E1,2.582E3,3E0,1E1,9E0,3.2E1,2E0,4E0,3E0,1.4E1,9.87E2,6E1,4E0,1E0,5E0,2E0,2.06E2,7.8E1,5E0,1.2E1,2.8E1,4E0,2.573E3,9E0,2E0,1E0,4E0,6E0,7E0,2E0,2.5E1,7E0,1E0,1E0,2E0,2E0,1E0,2E0,1.1E1,3E0,9.74E2,1.3E1,4.4E1,1.6E1,3E0,1E0,5.1E1,1.55E2,1.4E1,6.4E1,2E0,3E0,9E0,3E0,2.2E1,6E0,3.1E1,2.542E3,1E0,8E0],"tree_param":{"num_deleted":"0","num_feature":"4","num_nodes":"85","size_leaf_vector":"1"}},{"base_weights":[4.037567E-2,8.66743E0,-3.038307E-2,2.9327793E1,2.9900231E0,-2.0506732E-1,3.175387E0,-1.8418655E0,5.3165504E1,-1.4627071E1,5.8016214E0,-1.3988388E-1,-1.4767256E1,1.0048799E1,-6.953688E-1,-3.6504388E0,5.6562653E0,-2.9939118E-1,2.1465796E1,-5.089678E0,-1.1417267E0,1.3429353E1,-1.6856405E0,8.285882E-2,-4.0882144E0,-1.9212072E1,3.7137742E0,3.4662123E0,1.9280012E1,-5.74794E0,1.1759559E1,4.8311237E-1,2.0622072E0,-1.0342555E1,1.921799E1,-8.143355E0,5.410929E0,-3.3460576E-2,7.06259E0,-3.3192217E-2,-9.179152E0,-8.125308E0,-3.0721903E1,1.819093E1,-1.2605907E0,-6.123491E0,2.440082E1,1.6794759E0,-8.987858E0,1.758935E1,-1.25305E0,-9.906089E0,5.251939E0,3.7746736E-1,6.3221154E0,8.846258E0,-2.1911206E0,1.5151432E-2,-3.2889798E0,-2.4307313E0,3.4573495E0,-9.4113773E-1,4.158656E0,-4.098533E0,-3.0673286E-1,-5.142708E0,4.686874E0,-1.3078957E0,-1.2118462E1,7.9912424E0,-3.9637034E0,-7.2743006E0,4.9565622E-1,2.1401925E0,-4.3607154E0,1.0433852E1,3.9061658E0,-2.51076E0,4.1284432E0,1.7427359E0,-3.4152296E0,-6.6454816E-1,6.6573195E0,1.0641618E0,-5.5308914E0],"categories":[],"categories_nodes":[],"categories_segments":[],"categories_sizes":[],"default_left":[0,0,0,0,0,0,0,0,0,0,0,0,0,0,0,0,0,0,0,0,0,0,0,0,0,0,0,0,0,0,0,0,0,0,0,0,0,0,0,0,0,0,0,0,0,0,0,0,0,0,0,0,0,0,0,0,0,0,0,0,0,0,0,0,0,0,0,0,0,0,0,0,0,0,0,0,0,0,0,0,0,0,0,0,0],"id":16,"left_children":[1,3,5,7,9,11,13,15,17,19,21,23,25,27,29,-1,31,-1,-1,-1,-1,33,35,37,39,41,-1,43,45,47,49,-1,-1,51,53,-1,55,57,59,61,63,65,67,69,71,73,75,77,79,81,83,-1,-1,-1,-1,-1,-1,-1,-1,-1,-1,-1,-1,-1,-1,-1,-1,-1,-1,-1,-1,-1,-1,-1,-1,-1,-1,-1,-1,-1,-1,-1,-1,-1,-1],"loss_changes":[2.4762058E3,3.7831194E3,2.2540815E3,5.299017E3,1.4222299E3,3.6210823E3,5.540889E3,3.7853687E2,4.0550557E3,3.6656555E1,1.3932966E3,3.343173E3,2.2890718E3,4.490566E3,8.500134E3,0E0,3.7109985E0,0E0,0E0,0E0,0E0,1.8500464E3,2.4955962E3,2.9221858E3,4.1903994E3,1.664477E3,0E0,3.1549692E3,4.1820986E3,2.3252605E3,2.9806113E3,0E0,0E0,2.4727268E3,3.0676904E2,0E0,3.5827534E3,3.2502173E3,4.0856091E3,4.960345E3,3.2767427E3,2.1950635E3,1.6089009E3,3.2696836E3,2.3835303E3,7.728462E2,2.6180684E3,3.7574155E3,2.4417573E3,2.509794E3,1.1376896E3,0E0,0E0,0E0,0E0,0E0,0E0,0E0,0E0,0E0,0E0,0E0,0E0,0E0,0E0,0E0,0E0,0E0,0E0,0E0,0E0,0E0,0E0,0E0,0E0,0E0,0E0,0E0,0E0,0E0,0E0,0E0,0E0,0E0,0E0],"parents":[2147483647,0,0,1,1,2,2,3,3,4,4,5,5,6,6,7,7,8,8,9,9,10,10,11,11,12,12,13,13,14,14,16,16,21,21,22,22,23,23,24,24,25,25,27,27,28,28,29,29,30,30,33,33,34,34,36,36,37,37,38,38,39,39,40,40,41,41,42,42,43,43,44,44,45,45,46,46,47,47,48,48,49,49,50,50],"right_children":[2,4,6,8,10,12,14,16,18,20,22,24,26,28,30,-1,32,-1,-1,-1,-1,34,36,38,40,42,-1,44,46,48,50,-1,-1,52,54,-1,56,58,60,62,64,66,68,70,72,74,76,78,80,82,84,-1,-1,-1,-1,-1,-1,-1,-1,-1,-1,-1,-1,-1,-1,-1,-1,-1,-1,-1,-1,-1,-1,-1,-1,-1,-1,-1,-1,-1,-1,-1,-1,-1,-1],"split_conditions":[6.302571E0,-8.4808326E-1,2.8556084E1,-1.6855832E0,-1.4391641E-1,2.8431086E1,1.5815435E1,-1.8543334E0,5.771239E0,-2.5641662E-1,7.951916E0,8.400001E0,2.0721119E1,1.3891522E1,1E-1,-3.6504388E0,-1.76475E0,-2.9939118E-1,2.1465796E1,-5.089678E0,-1.1417267E0,3.349756E1,1.0083167E1,6.2E0,1.0048068E2,1.4336861E1,3.7137742E0,1.3754492E2,1.08321175E2,1.9164822E2,7.3000007E0,4.8311237E-1,2.0622072E0,2.7998323E0,2.8108332E-1,-8.143355E0,5.771239E0,5.4E0,1.2762082E1,7.6284065E1,1.9300001E1,1.3276144E1,6.1182186E1,1.2261158E1,1.4292067E2,